digraph Tree {
node [shape=box, style="filled, rounded", color="black", fontname=helvetica] ;
edge [fontname=helvetica] ;
0 [label=<Explosive_Vehicle &le; 0.5<br/>entropy = 1.0<br/>samples = 29069<br/>value = [14857, 14212]<br/>class = Not suicide>, fillcolor="#e581390b"] ;
1 [label=<Unknown_Firearm &le; 0.5<br/>entropy = 0.931<br/>samples = 21620<br/>value = [14129, 7491]<br/>class = Not suicide>, fillcolor="#e5813978"] ;
0 -> 1 [labeldistance=2.5, labelangle=45, headlabel="True"] ;
2 [label=<Unknown_Explosive &le; 0.5<br/>entropy = 0.983<br/>samples = 17701<br/>value = [10219, 7482]<br/>class = Not suicide>, fillcolor="#e5813944"] ;
1 -> 2 ;
3 [label=<Claimed_responsibility &le; 0.5<br/>entropy = 0.999<br/>samples = 15498<br/>value = [8030, 7468]<br/>class = Not suicide>, fillcolor="#e5813912"] ;
2 -> 3 ;
4 [label=<Iraq &le; 0.5<br/>entropy = 0.931<br/>samples = 8665<br/>value = [5663, 3002]<br/>class = Not suicide>, fillcolor="#e5813978"] ;
3 -> 4 ;
5 [label=<Afghanistan &le; 0.5<br/>entropy = 0.829<br/>samples = 6960<br/>value = [5140, 1820]<br/>class = Not suicide>, fillcolor="#e58139a5"] ;
4 -> 5 ;
6 [label=<Other_Explosive &le; 0.5<br/>entropy = 0.759<br/>samples = 6300<br/>value = [4919, 1381]<br/>class = Not suicide>, fillcolor="#e58139b7"] ;
5 -> 6 ;
7 [label=<India &le; 0.5<br/>entropy = 0.796<br/>samples = 5737<br/>value = [4356, 1381]<br/>class = Not suicide>, fillcolor="#e58139ae"] ;
6 -> 7 ;
8 [label=<Happened_After_2002 &le; 0.5<br/>entropy = 0.844<br/>samples = 4980<br/>value = [3625, 1355]<br/>class = Not suicide>, fillcolor="#e58139a0"] ;
7 -> 8 ;
9 [label=<Military_Checkpoint &le; 0.5<br/>entropy = 0.432<br/>samples = 969<br/>value = [883, 86]<br/>class = Not suicide>, fillcolor="#e58139e6"] ;
8 -> 9 ;
10 [label=<Government_Politician &le; 0.5<br/>entropy = 0.407<br/>samples = 959<br/>value = [881, 78]<br/>class = Not suicide>, fillcolor="#e58139e8"] ;
9 -> 10 ;
11 [label=<Political_Building &le; 0.5<br/>entropy = 0.354<br/>samples = 912<br/>value = [851, 61]<br/>class = Not suicide>, fillcolor="#e58139ed"] ;
10 -> 11 ;
12 [label=<Military_Barracks &le; 0.5<br/>entropy = 0.313<br/>samples = 888<br/>value = [838, 50]<br/>class = Not suicide>, fillcolor="#e58139f0"] ;
11 -> 12 ;
13 [label=<MiddleEast_NorthAfrican &le; 0.5<br/>entropy = 0.265<br/>samples = 843<br/>value = [805, 38]<br/>class = Not suicide>, fillcolor="#e58139f3"] ;
12 -> 13 ;
14 [label=<Columbia &le; 0.5<br/>entropy = 0.289<br/>samples = 752<br/>value = [714, 38]<br/>class = Not suicide>, fillcolor="#e58139f1"] ;
13 -> 14 ;
15 [label=<Handgun &le; 0.5<br/>entropy = 0.306<br/>samples = 695<br/>value = [657, 38]<br/>class = Not suicide>, fillcolor="#e58139f0"] ;
14 -> 15 ;
16 [label=<Rifle &le; 0.5<br/>entropy = 0.319<br/>samples = 656<br/>value = [618, 38]<br/>class = Not suicide>, fillcolor="#e58139ef"] ;
15 -> 16 ;
17 [label=<Hostage_Kidnapping &le; 0.5<br/>entropy = 0.331<br/>samples = 625<br/>value = [587, 38]<br/>class = Not suicide>, fillcolor="#e58139ee"] ;
16 -> 17 ;
18 [label=<Religious_Place_Of_Worship &le; 0.5<br/>entropy = 0.341<br/>samples = 599<br/>value = [561, 38]<br/>class = Not suicide>, fillcolor="#e58139ee"] ;
17 -> 18 ;
19 [label=<Projectile &le; 0.5<br/>entropy = 0.35<br/>samples = 577<br/>value = [539, 38]<br/>class = Not suicide>, fillcolor="#e58139ed"] ;
18 -> 19 ;
20 [label=<Utility_Location &le; 0.5<br/>entropy = 0.355<br/>samples = 567<br/>value = [529, 38]<br/>class = Not suicide>, fillcolor="#e58139ed"] ;
19 -> 20 ;
21 [label=<NonStateMilitia &le; 0.5<br/>entropy = 0.357<br/>samples = 561<br/>value = [523, 38]<br/>class = Not suicide>, fillcolor="#e58139ec"] ;
20 -> 21 ;
22 [label=<entropy = 0.358<br/>samples = 560<br/>value = [522, 38]<br/>class = Not suicide>, fillcolor="#e58139ec"] ;
21 -> 22 ;
23 [label=<entropy = 0.0<br/>samples = 1<br/>value = [1, 0]<br/>class = Not suicide>, fillcolor="#e58139ff"] ;
21 -> 23 ;
24 [label=<entropy = 0.0<br/>samples = 6<br/>value = [6, 0]<br/>class = Not suicide>, fillcolor="#e58139ff"] ;
20 -> 24 ;
25 [label=<entropy = 0.0<br/>samples = 10<br/>value = [10, 0]<br/>class = Not suicide>, fillcolor="#e58139ff"] ;
19 -> 25 ;
26 [label=<entropy = 0.0<br/>samples = 22<br/>value = [22, 0]<br/>class = Not suicide>, fillcolor="#e58139ff"] ;
18 -> 26 ;
27 [label=<entropy = 0.0<br/>samples = 26<br/>value = [26, 0]<br/>class = Not suicide>, fillcolor="#e58139ff"] ;
17 -> 27 ;
28 [label=<entropy = 0.0<br/>samples = 31<br/>value = [31, 0]<br/>class = Not suicide>, fillcolor="#e58139ff"] ;
16 -> 28 ;
29 [label=<entropy = 0.0<br/>samples = 39<br/>value = [39, 0]<br/>class = Not suicide>, fillcolor="#e58139ff"] ;
15 -> 29 ;
30 [label=<entropy = 0.0<br/>samples = 57<br/>value = [57, 0]<br/>class = Not suicide>, fillcolor="#e58139ff"] ;
14 -> 30 ;
31 [label=<entropy = 0.0<br/>samples = 91<br/>value = [91, 0]<br/>class = Not suicide>, fillcolor="#e58139ff"] ;
13 -> 31 ;
32 [label=<Projectile &le; 0.5<br/>entropy = 0.837<br/>samples = 45<br/>value = [33, 12]<br/>class = Not suicide>, fillcolor="#e58139a2"] ;
12 -> 32 ;
33 [label=<Rifle &le; 0.5<br/>entropy = 0.963<br/>samples = 31<br/>value = [19, 12]<br/>class = Not suicide>, fillcolor="#e581395e"] ;
32 -> 33 ;
34 [label=<entropy = 0.978<br/>samples = 29<br/>value = [17, 12]<br/>class = Not suicide>, fillcolor="#e581394b"] ;
33 -> 34 ;
35 [label=<entropy = 0.0<br/>samples = 2<br/>value = [2, 0]<br/>class = Not suicide>, fillcolor="#e58139ff"] ;
33 -> 35 ;
36 [label=<entropy = 0.0<br/>samples = 14<br/>value = [14, 0]<br/>class = Not suicide>, fillcolor="#e58139ff"] ;
32 -> 36 ;
37 [label=<MiddleEast_NorthAfrican &le; 0.5<br/>entropy = 0.995<br/>samples = 24<br/>value = [13, 11]<br/>class = Not suicide>, fillcolor="#e5813927"] ;
11 -> 37 ;
38 [label=<entropy = 0.0<br/>samples = 11<br/>value = [11, 0]<br/>class = Not suicide>, fillcolor="#e58139ff"] ;
37 -> 38 ;
39 [label=<entropy = 0.619<br/>samples = 13<br/>value = [2, 11]<br/>class = Suicide>, fillcolor="#399de5d1"] ;
37 -> 39 ;
40 [label=<Rifle &le; 0.5<br/>entropy = 0.944<br/>samples = 47<br/>value = [30, 17]<br/>class = Not suicide>, fillcolor="#e581396e"] ;
10 -> 40 ;
41 [label=<Handgun &le; 0.5<br/>entropy = 0.962<br/>samples = 44<br/>value = [27, 17]<br/>class = Not suicide>, fillcolor="#e581395e"] ;
40 -> 41 ;
42 [label=<Columbia &le; 0.5<br/>entropy = 0.979<br/>samples = 41<br/>value = [24, 17]<br/>class = Not suicide>, fillcolor="#e581394a"] ;
41 -> 42 ;
43 [label=<MiddleEast_NorthAfrican &le; 0.5<br/>entropy = 0.988<br/>samples = 39<br/>value = [22, 17]<br/>class = Not suicide>, fillcolor="#e581393a"] ;
42 -> 43 ;
44 [label=<Hostage_Kidnapping &le; 0.5<br/>entropy = 0.995<br/>samples = 37<br/>value = [20, 17]<br/>class = Not suicide>, fillcolor="#e5813926"] ;
43 -> 44 ;
45 [label=<Projectile &le; 0.5<br/>entropy = 0.998<br/>samples = 36<br/>value = [19, 17]<br/>class = Not suicide>, fillcolor="#e581391b"] ;
44 -> 45 ;
46 [label=<entropy = 0.999<br/>samples = 35<br/>value = [18, 17]<br/>class = Not suicide>, fillcolor="#e581390e"] ;
45 -> 46 ;
47 [label=<entropy = 0.0<br/>samples = 1<br/>value = [1, 0]<br/>class = Not suicide>, fillcolor="#e58139ff"] ;
45 -> 47 ;
48 [label=<entropy = 0.0<br/>samples = 1<br/>value = [1, 0]<br/>class = Not suicide>, fillcolor="#e58139ff"] ;
44 -> 48 ;
49 [label=<entropy = 0.0<br/>samples = 2<br/>value = [2, 0]<br/>class = Not suicide>, fillcolor="#e58139ff"] ;
43 -> 49 ;
50 [label=<entropy = 0.0<br/>samples = 2<br/>value = [2, 0]<br/>class = Not suicide>, fillcolor="#e58139ff"] ;
42 -> 50 ;
51 [label=<entropy = 0.0<br/>samples = 3<br/>value = [3, 0]<br/>class = Not suicide>, fillcolor="#e58139ff"] ;
41 -> 51 ;
52 [label=<entropy = 0.0<br/>samples = 3<br/>value = [3, 0]<br/>class = Not suicide>, fillcolor="#e58139ff"] ;
40 -> 52 ;
53 [label=<Projectile &le; 0.5<br/>entropy = 0.722<br/>samples = 10<br/>value = [2, 8]<br/>class = Suicide>, fillcolor="#399de5bf"] ;
9 -> 53 ;
54 [label=<MiddleEast_NorthAfrican &le; 0.5<br/>entropy = 0.503<br/>samples = 9<br/>value = [1, 8]<br/>class = Suicide>, fillcolor="#399de5df"] ;
53 -> 54 ;
55 [label=<entropy = 0.0<br/>samples = 8<br/>value = [0, 8]<br/>class = Suicide>, fillcolor="#399de5ff"] ;
54 -> 55 ;
56 [label=<entropy = 0.0<br/>samples = 1<br/>value = [1, 0]<br/>class = Not suicide>, fillcolor="#e58139ff"] ;
54 -> 56 ;
57 [label=<entropy = 0.0<br/>samples = 1<br/>value = [1, 0]<br/>class = Not suicide>, fillcolor="#e58139ff"] ;
53 -> 57 ;
58 [label=<Rifle &le; 0.5<br/>entropy = 0.9<br/>samples = 4011<br/>value = [2742, 1269]<br/>class = Not suicide>, fillcolor="#e5813989"] ;
8 -> 58 ;
59 [label=<Projectile &le; 0.5<br/>entropy = 0.925<br/>samples = 3729<br/>value = [2460, 1269]<br/>class = Not suicide>, fillcolor="#e581397b"] ;
58 -> 59 ;
60 [label=<Hostage_Kidnapping &le; 0.5<br/>entropy = 0.949<br/>samples = 3448<br/>value = [2179, 1269]<br/>class = Not suicide>, fillcolor="#e581396a"] ;
59 -> 60 ;
61 [label=<Handgun &le; 0.5<br/>entropy = 0.974<br/>samples = 3070<br/>value = [1824, 1246]<br/>class = Not suicide>, fillcolor="#e5813951"] ;
60 -> 61 ;
62 [label=<Syria &le; 0.5<br/>entropy = 0.983<br/>samples = 2940<br/>value = [1694, 1246]<br/>class = Not suicide>, fillcolor="#e5813943"] ;
61 -> 62 ;
63 [label=<NonStateMilitia &le; 0.5<br/>entropy = 0.978<br/>samples = 2863<br/>value = [1681, 1182]<br/>class = Not suicide>, fillcolor="#e581394c"] ;
62 -> 63 ;
64 [label=<Religious_Place_Of_Worship &le; 0.5<br/>entropy = 0.973<br/>samples = 2804<br/>value = [1673, 1131]<br/>class = Not suicide>, fillcolor="#e5813953"] ;
63 -> 64 ;
65 [label=<Columbia &le; 0.5<br/>entropy = 0.963<br/>samples = 2628<br/>value = [1609, 1019]<br/>class = Not suicide>, fillcolor="#e581395e"] ;
64 -> 65 ;
66 [label=<Military_Barracks &le; 0.5<br/>entropy = 0.967<br/>samples = 2590<br/>value = [1571, 1019]<br/>class = Not suicide>, fillcolor="#e581395a"] ;
65 -> 66 ;
67 [label=<Utility_Location &le; 0.5<br/>entropy = 0.961<br/>samples = 2522<br/>value = [1553, 969]<br/>class = Not suicide>, fillcolor="#e5813960"] ;
66 -> 67 ;
68 [label=<Politicial_Checkpoint &le; 0.5<br/>entropy = 0.964<br/>samples = 2493<br/>value = [1524, 969]<br/>class = Not suicide>, fillcolor="#e581395d"] ;
67 -> 68 ;
69 [label=<Political_Building &le; 0.5<br/>entropy = 0.96<br/>samples = 2458<br/>value = [1516, 942]<br/>class = Not suicide>, fillcolor="#e5813961"] ;
68 -> 69 ;
70 [label=<MiddleEast_NorthAfrican &le; 0.5<br/>entropy = 0.956<br/>samples = 2390<br/>value = [1488, 902]<br/>class = Not suicide>, fillcolor="#e5813964"] ;
69 -> 70 ;
71 [label=<Military_Checkpoint &le; 0.5<br/>entropy = 0.965<br/>samples = 1973<br/>value = [1202, 771]<br/>class = Not suicide>, fillcolor="#e581395b"] ;
70 -> 71 ;
72 [label=<Government_Politician &le; 0.5<br/>entropy = 0.964<br/>samples = 1964<br/>value = [1200, 764]<br/>class = Not suicide>, fillcolor="#e581395d"] ;
71 -> 72 ;
73 [label=<entropy = 0.962<br/>samples = 1879<br/>value = [1154, 725]<br/>class = Not suicide>, fillcolor="#e581395f"] ;
72 -> 73 ;
74 [label=<entropy = 0.995<br/>samples = 85<br/>value = [46, 39]<br/>class = Not suicide>, fillcolor="#e5813927"] ;
72 -> 74 ;
75 [label=<entropy = 0.764<br/>samples = 9<br/>value = [2, 7]<br/>class = Suicide>, fillcolor="#399de5b6"] ;
71 -> 75 ;
76 [label=<Government_Politician &le; 0.5<br/>entropy = 0.898<br/>samples = 417<br/>value = [286, 131]<br/>class = Not suicide>, fillcolor="#e581398a"] ;
70 -> 76 ;
77 [label=<Military_Checkpoint &le; 0.5<br/>entropy = 0.901<br/>samples = 413<br/>value = [282, 131]<br/>class = Not suicide>, fillcolor="#e5813989"] ;
76 -> 77 ;
78 [label=<entropy = 0.902<br/>samples = 412<br/>value = [281, 131]<br/>class = Not suicide>, fillcolor="#e5813988"] ;
77 -> 78 ;
79 [label=<entropy = 0.0<br/>samples = 1<br/>value = [1, 0]<br/>class = Not suicide>, fillcolor="#e58139ff"] ;
77 -> 79 ;
80 [label=<entropy = 0.0<br/>samples = 4<br/>value = [4, 0]<br/>class = Not suicide>, fillcolor="#e58139ff"] ;
76 -> 80 ;
81 [label=<MiddleEast_NorthAfrican &le; 0.5<br/>entropy = 0.977<br/>samples = 68<br/>value = [28, 40]<br/>class = Suicide>, fillcolor="#399de54d"] ;
69 -> 81 ;
82 [label=<entropy = 1.0<br/>samples = 49<br/>value = [24, 25]<br/>class = Suicide>, fillcolor="#399de50a"] ;
81 -> 82 ;
83 [label=<entropy = 0.742<br/>samples = 19<br/>value = [4, 15]<br/>class = Suicide>, fillcolor="#399de5bb"] ;
81 -> 83 ;
84 [label=<MiddleEast_NorthAfrican &le; 0.5<br/>entropy = 0.776<br/>samples = 35<br/>value = [8, 27]<br/>class = Suicide>, fillcolor="#399de5b3"] ;
68 -> 84 ;
85 [label=<entropy = 0.65<br/>samples = 18<br/>value = [3, 15]<br/>class = Suicide>, fillcolor="#399de5cc"] ;
84 -> 85 ;
86 [label=<entropy = 0.874<br/>samples = 17<br/>value = [5, 12]<br/>class = Suicide>, fillcolor="#399de595"] ;
84 -> 86 ;
87 [label=<entropy = 0.0<br/>samples = 29<br/>value = [29, 0]<br/>class = Not suicide>, fillcolor="#e58139ff"] ;
67 -> 87 ;
88 [label=<MiddleEast_NorthAfrican &le; 0.5<br/>entropy = 0.834<br/>samples = 68<br/>value = [18, 50]<br/>class = Suicide>, fillcolor="#399de5a3"] ;
66 -> 88 ;
89 [label=<entropy = 0.963<br/>samples = 31<br/>value = [12, 19]<br/>class = Suicide>, fillcolor="#399de55e"] ;
88 -> 89 ;
90 [label=<entropy = 0.639<br/>samples = 37<br/>value = [6, 31]<br/>class = Suicide>, fillcolor="#399de5ce"] ;
88 -> 90 ;
91 [label=<entropy = 0.0<br/>samples = 38<br/>value = [38, 0]<br/>class = Not suicide>, fillcolor="#e58139ff"] ;
65 -> 91 ;
92 [label=<MiddleEast_NorthAfrican &le; 0.5<br/>entropy = 0.946<br/>samples = 176<br/>value = [64, 112]<br/>class = Suicide>, fillcolor="#399de56d"] ;
64 -> 92 ;
93 [label=<entropy = 0.896<br/>samples = 163<br/>value = [51, 112]<br/>class = Suicide>, fillcolor="#399de58b"] ;
92 -> 93 ;
94 [label=<entropy = 0.0<br/>samples = 13<br/>value = [13, 0]<br/>class = Not suicide>, fillcolor="#e58139ff"] ;
92 -> 94 ;
95 [label=<MiddleEast_NorthAfrican &le; 0.5<br/>entropy = 0.573<br/>samples = 59<br/>value = [8, 51]<br/>class = Suicide>, fillcolor="#399de5d7"] ;
63 -> 95 ;
96 [label=<entropy = 0.996<br/>samples = 13<br/>value = [6, 7]<br/>class = Suicide>, fillcolor="#399de524"] ;
95 -> 96 ;
97 [label=<entropy = 0.258<br/>samples = 46<br/>value = [2, 44]<br/>class = Suicide>, fillcolor="#399de5f3"] ;
95 -> 97 ;
98 [label=<Military_Barracks &le; 0.5<br/>entropy = 0.655<br/>samples = 77<br/>value = [13, 64]<br/>class = Suicide>, fillcolor="#399de5cb"] ;
62 -> 98 ;
99 [label=<Religious_Place_Of_Worship &le; 0.5<br/>entropy = 0.796<br/>samples = 54<br/>value = [13, 41]<br/>class = Suicide>, fillcolor="#399de5ae"] ;
98 -> 99 ;
100 [label=<Military_Checkpoint &le; 0.5<br/>entropy = 0.744<br/>samples = 52<br/>value = [11, 41]<br/>class = Suicide>, fillcolor="#399de5bb"] ;
99 -> 100 ;
101 [label=<entropy = 0.714<br/>samples = 51<br/>value = [10, 41]<br/>class = Suicide>, fillcolor="#399de5c1"] ;
100 -> 101 ;
102 [label=<entropy = 0.0<br/>samples = 1<br/>value = [1, 0]<br/>class = Not suicide>, fillcolor="#e58139ff"] ;
100 -> 102 ;
103 [label=<entropy = 0.0<br/>samples = 2<br/>value = [2, 0]<br/>class = Not suicide>, fillcolor="#e58139ff"] ;
99 -> 103 ;
104 [label=<entropy = 0.0<br/>samples = 23<br/>value = [0, 23]<br/>class = Suicide>, fillcolor="#399de5ff"] ;
98 -> 104 ;
105 [label=<entropy = 0.0<br/>samples = 130<br/>value = [130, 0]<br/>class = Not suicide>, fillcolor="#e58139ff"] ;
61 -> 105 ;
106 [label=<MiddleEast_NorthAfrican &le; 0.5<br/>entropy = 0.331<br/>samples = 378<br/>value = [355, 23]<br/>class = Not suicide>, fillcolor="#e58139ee"] ;
60 -> 106 ;
107 [label=<Columbia &le; 0.5<br/>entropy = 0.454<br/>samples = 241<br/>value = [218, 23]<br/>class = Not suicide>, fillcolor="#e58139e4"] ;
106 -> 107 ;
108 [label=<Government_Politician &le; 0.5<br/>entropy = 0.466<br/>samples = 232<br/>value = [209, 23]<br/>class = Not suicide>, fillcolor="#e58139e3"] ;
107 -> 108 ;
109 [label=<Handgun &le; 0.5<br/>entropy = 0.477<br/>samples = 224<br/>value = [201, 23]<br/>class = Not suicide>, fillcolor="#e58139e2"] ;
108 -> 109 ;
110 [label=<Religious_Place_Of_Worship &le; 0.5<br/>entropy = 0.482<br/>samples = 221<br/>value = [198, 23]<br/>class = Not suicide>, fillcolor="#e58139e1"] ;
109 -> 110 ;
111 [label=<NonStateMilitia &le; 0.5<br/>entropy = 0.485<br/>samples = 219<br/>value = [196, 23]<br/>class = Not suicide>, fillcolor="#e58139e1"] ;
110 -> 111 ;
112 [label=<entropy = 0.486<br/>samples = 218<br/>value = [195, 23]<br/>class = Not suicide>, fillcolor="#e58139e1"] ;
111 -> 112 ;
113 [label=<entropy = 0.0<br/>samples = 1<br/>value = [1, 0]<br/>class = Not suicide>, fillcolor="#e58139ff"] ;
111 -> 113 ;
114 [label=<entropy = 0.0<br/>samples = 2<br/>value = [2, 0]<br/>class = Not suicide>, fillcolor="#e58139ff"] ;
110 -> 114 ;
115 [label=<entropy = 0.0<br/>samples = 3<br/>value = [3, 0]<br/>class = Not suicide>, fillcolor="#e58139ff"] ;
109 -> 115 ;
116 [label=<entropy = 0.0<br/>samples = 8<br/>value = [8, 0]<br/>class = Not suicide>, fillcolor="#e58139ff"] ;
108 -> 116 ;
117 [label=<entropy = 0.0<br/>samples = 9<br/>value = [9, 0]<br/>class = Not suicide>, fillcolor="#e58139ff"] ;
107 -> 117 ;
118 [label=<entropy = 0.0<br/>samples = 137<br/>value = [137, 0]<br/>class = Not suicide>, fillcolor="#e58139ff"] ;
106 -> 118 ;
119 [label=<entropy = 0.0<br/>samples = 281<br/>value = [281, 0]<br/>class = Not suicide>, fillcolor="#e58139ff"] ;
59 -> 119 ;
120 [label=<entropy = 0.0<br/>samples = 282<br/>value = [282, 0]<br/>class = Not suicide>, fillcolor="#e58139ff"] ;
58 -> 120 ;
121 [label=<Hostage_Kidnapping &le; 0.5<br/>entropy = 0.216<br/>samples = 757<br/>value = [731, 26]<br/>class = Not suicide>, fillcolor="#e58139f6"] ;
7 -> 121 ;
122 [label=<Rifle &le; 0.5<br/>entropy = 0.259<br/>samples = 596<br/>value = [570, 26]<br/>class = Not suicide>, fillcolor="#e58139f3"] ;
121 -> 122 ;
123 [label=<Happened_After_2002 &le; 0.5<br/>entropy = 0.277<br/>samples = 543<br/>value = [517, 26]<br/>class = Not suicide>, fillcolor="#e58139f2"] ;
122 -> 123 ;
124 [label=<entropy = 0.0<br/>samples = 36<br/>value = [36, 0]<br/>class = Not suicide>, fillcolor="#e58139ff"] ;
123 -> 124 ;
125 [label=<Political_Building &le; 0.5<br/>entropy = 0.292<br/>samples = 507<br/>value = [481, 26]<br/>class = Not suicide>, fillcolor="#e58139f1"] ;
123 -> 125 ;
126 [label=<Government_Politician &le; 0.5<br/>entropy = 0.304<br/>samples = 480<br/>value = [454, 26]<br/>class = Not suicide>, fillcolor="#e58139f0"] ;
125 -> 126 ;
127 [label=<Handgun &le; 0.5<br/>entropy = 0.313<br/>samples = 461<br/>value = [435, 26]<br/>class = Not suicide>, fillcolor="#e58139f0"] ;
126 -> 127 ;
128 [label=<Religious_Place_Of_Worship &le; 0.5<br/>entropy = 0.321<br/>samples = 446<br/>value = [420, 26]<br/>class = Not suicide>, fillcolor="#e58139ef"] ;
127 -> 128 ;
129 [label=<Military_Barracks &le; 0.5<br/>entropy = 0.322<br/>samples = 443<br/>value = [417, 26]<br/>class = Not suicide>, fillcolor="#e58139ef"] ;
128 -> 129 ;
130 [label=<Projectile &le; 0.5<br/>entropy = 0.323<br/>samples = 441<br/>value = [415, 26]<br/>class = Not suicide>, fillcolor="#e58139ef"] ;
129 -> 130 ;
131 [label=<Utility_Location &le; 0.5<br/>entropy = 0.324<br/>samples = 440<br/>value = [414, 26]<br/>class = Not suicide>, fillcolor="#e58139ef"] ;
130 -> 131 ;
132 [label=<NonStateMilitia &le; 0.5<br/>entropy = 0.324<br/>samples = 439<br/>value = [413, 26]<br/>class = Not suicide>, fillcolor="#e58139ef"] ;
131 -> 132 ;
133 [label=<entropy = 0.325<br/>samples = 438<br/>value = [412, 26]<br/>class = Not suicide>, fillcolor="#e58139ef"] ;
132 -> 133 ;
134 [label=<entropy = 0.0<br/>samples = 1<br/>value = [1, 0]<br/>class = Not suicide>, fillcolor="#e58139ff"] ;
132 -> 134 ;
135 [label=<entropy = 0.0<br/>samples = 1<br/>value = [1, 0]<br/>class = Not suicide>, fillcolor="#e58139ff"] ;
131 -> 135 ;
136 [label=<entropy = 0.0<br/>samples = 1<br/>value = [1, 0]<br/>class = Not suicide>, fillcolor="#e58139ff"] ;
130 -> 136 ;
137 [label=<entropy = 0.0<br/>samples = 2<br/>value = [2, 0]<br/>class = Not suicide>, fillcolor="#e58139ff"] ;
129 -> 137 ;
138 [label=<entropy = 0.0<br/>samples = 3<br/>value = [3, 0]<br/>class = Not suicide>, fillcolor="#e58139ff"] ;
128 -> 138 ;
139 [label=<entropy = 0.0<br/>samples = 15<br/>value = [15, 0]<br/>class = Not suicide>, fillcolor="#e58139ff"] ;
127 -> 139 ;
140 [label=<entropy = 0.0<br/>samples = 19<br/>value = [19, 0]<br/>class = Not suicide>, fillcolor="#e58139ff"] ;
126 -> 140 ;
141 [label=<entropy = 0.0<br/>samples = 27<br/>value = [27, 0]<br/>class = Not suicide>, fillcolor="#e58139ff"] ;
125 -> 141 ;
142 [label=<entropy = 0.0<br/>samples = 53<br/>value = [53, 0]<br/>class = Not suicide>, fillcolor="#e58139ff"] ;
122 -> 142 ;
143 [label=<entropy = 0.0<br/>samples = 161<br/>value = [161, 0]<br/>class = Not suicide>, fillcolor="#e58139ff"] ;
121 -> 143 ;
144 [label=<entropy = 0.0<br/>samples = 563<br/>value = [563, 0]<br/>class = Not suicide>, fillcolor="#e58139ff"] ;
6 -> 144 ;
145 [label=<Hostage_Kidnapping &le; 0.5<br/>entropy = 0.92<br/>samples = 660<br/>value = [221, 439]<br/>class = Suicide>, fillcolor="#399de57f"] ;
5 -> 145 ;
146 [label=<Projectile &le; 0.5<br/>entropy = 0.846<br/>samples = 604<br/>value = [165, 439]<br/>class = Suicide>, fillcolor="#399de59f"] ;
145 -> 146 ;
147 [label=<Other_Explosive &le; 0.5<br/>entropy = 0.798<br/>samples = 579<br/>value = [140, 439]<br/>class = Suicide>, fillcolor="#399de5ae"] ;
146 -> 147 ;
148 [label=<Rifle &le; 0.5<br/>entropy = 0.756<br/>samples = 561<br/>value = [122, 439]<br/>class = Suicide>, fillcolor="#399de5b8"] ;
147 -> 148 ;
149 [label=<Religious_Place_Of_Worship &le; 0.5<br/>entropy = 0.737<br/>samples = 554<br/>value = [115, 439]<br/>class = Suicide>, fillcolor="#399de5bc"] ;
148 -> 149 ;
150 [label=<Military_Barracks &le; 0.5<br/>entropy = 0.766<br/>samples = 515<br/>value = [115, 400]<br/>class = Suicide>, fillcolor="#399de5b6"] ;
149 -> 150 ;
151 [label=<Politicial_Checkpoint &le; 0.5<br/>entropy = 0.78<br/>samples = 497<br/>value = [115, 382]<br/>class = Suicide>, fillcolor="#399de5b2"] ;
150 -> 151 ;
152 [label=<Happened_After_2002 &le; 0.5<br/>entropy = 0.772<br/>samples = 494<br/>value = [112, 382]<br/>class = Suicide>, fillcolor="#399de5b4"] ;
151 -> 152 ;
153 [label=<entropy = 0.0<br/>samples = 2<br/>value = [2, 0]<br/>class = Not suicide>, fillcolor="#e58139ff"] ;
152 -> 153 ;
154 [label=<Political_Building &le; 0.5<br/>entropy = 0.767<br/>samples = 492<br/>value = [110, 382]<br/>class = Suicide>, fillcolor="#399de5b6"] ;
152 -> 154 ;
155 [label=<NonStateMilitia &le; 0.5<br/>entropy = 0.764<br/>samples = 491<br/>value = [109, 382]<br/>class = Suicide>, fillcolor="#399de5b6"] ;
154 -> 155 ;
156 [label=<Government_Politician &le; 0.5<br/>entropy = 0.77<br/>samples = 479<br/>value = [108, 371]<br/>class = Suicide>, fillcolor="#399de5b5"] ;
155 -> 156 ;
157 [label=<entropy = 0.776<br/>samples = 468<br/>value = [107, 361]<br/>class = Suicide>, fillcolor="#399de5b3"] ;
156 -> 157 ;
158 [label=<entropy = 0.439<br/>samples = 11<br/>value = [1, 10]<br/>class = Suicide>, fillcolor="#399de5e6"] ;
156 -> 158 ;
159 [label=<entropy = 0.414<br/>samples = 12<br/>value = [1, 11]<br/>class = Suicide>, fillcolor="#399de5e8"] ;
155 -> 159 ;
160 [label=<entropy = 0.0<br/>samples = 1<br/>value = [1, 0]<br/>class = Not suicide>, fillcolor="#e58139ff"] ;
154 -> 160 ;
161 [label=<entropy = 0.0<br/>samples = 3<br/>value = [3, 0]<br/>class = Not suicide>, fillcolor="#e58139ff"] ;
151 -> 161 ;
162 [label=<entropy = 0.0<br/>samples = 18<br/>value = [0, 18]<br/>class = Suicide>, fillcolor="#399de5ff"] ;
150 -> 162 ;
163 [label=<entropy = 0.0<br/>samples = 39<br/>value = [0, 39]<br/>class = Suicide>, fillcolor="#399de5ff"] ;
149 -> 163 ;
164 [label=<entropy = 0.0<br/>samples = 7<br/>value = [7, 0]<br/>class = Not suicide>, fillcolor="#e58139ff"] ;
148 -> 164 ;
165 [label=<entropy = 0.0<br/>samples = 18<br/>value = [18, 0]<br/>class = Not suicide>, fillcolor="#e58139ff"] ;
147 -> 165 ;
166 [label=<entropy = 0.0<br/>samples = 25<br/>value = [25, 0]<br/>class = Not suicide>, fillcolor="#e58139ff"] ;
146 -> 166 ;
167 [label=<entropy = 0.0<br/>samples = 56<br/>value = [56, 0]<br/>class = Not suicide>, fillcolor="#e58139ff"] ;
145 -> 167 ;
168 [label=<Hostage_Kidnapping &le; 0.5<br/>entropy = 0.889<br/>samples = 1705<br/>value = [523, 1182]<br/>class = Suicide>, fillcolor="#399de58e"] ;
4 -> 168 ;
169 [label=<Other_Explosive &le; 0.5<br/>entropy = 0.788<br/>samples = 1547<br/>value = [365, 1182]<br/>class = Suicide>, fillcolor="#399de5b0"] ;
168 -> 169 ;
170 [label=<Projectile &le; 0.5<br/>entropy = 0.702<br/>samples = 1460<br/>value = [278, 1182]<br/>class = Suicide>, fillcolor="#399de5c3"] ;
169 -> 170 ;
171 [label=<Rifle &le; 0.5<br/>entropy = 0.641<br/>samples = 1412<br/>value = [230, 1182]<br/>class = Suicide>, fillcolor="#399de5cd"] ;
170 -> 171 ;
172 [label=<Religious_Place_Of_Worship &le; 0.5<br/>entropy = 0.614<br/>samples = 1393<br/>value = [211, 1182]<br/>class = Suicide>, fillcolor="#399de5d1"] ;
171 -> 172 ;
173 [label=<Military_Checkpoint &le; 0.5<br/>entropy = 0.684<br/>samples = 1121<br/>value = [204, 917]<br/>class = Suicide>, fillcolor="#399de5c6"] ;
172 -> 173 ;
174 [label=<Government_Politician &le; 0.5<br/>entropy = 0.703<br/>samples = 1070<br/>value = [204, 866]<br/>class = Suicide>, fillcolor="#399de5c3"] ;
173 -> 174 ;
175 [label=<Military_Barracks &le; 0.5<br/>entropy = 0.695<br/>samples = 1065<br/>value = [199, 866]<br/>class = Suicide>, fillcolor="#399de5c4"] ;
174 -> 175 ;
176 [label=<Handgun &le; 0.5<br/>entropy = 0.706<br/>samples = 1035<br/>value = [199, 836]<br/>class = Suicide>, fillcolor="#399de5c2"] ;
175 -> 176 ;
177 [label=<Politicial_Checkpoint &le; 0.5<br/>entropy = 0.701<br/>samples = 1032<br/>value = [196, 836]<br/>class = Suicide>, fillcolor="#399de5c3"] ;
176 -> 177 ;
178 [label=<NonStateMilitia &le; 0.5<br/>entropy = 0.707<br/>samples = 1017<br/>value = [196, 821]<br/>class = Suicide>, fillcolor="#399de5c2"] ;
177 -> 178 ;
179 [label=<Political_Building &le; 0.5<br/>entropy = 0.721<br/>samples = 943<br/>value = [188, 755]<br/>class = Suicide>, fillcolor="#399de5c0"] ;
178 -> 179 ;
180 [label=<entropy = 0.719<br/>samples = 942<br/>value = [187, 755]<br/>class = Suicide>, fillcolor="#399de5c0"] ;
179 -> 180 ;
181 [label=<entropy = 0.0<br/>samples = 1<br/>value = [1, 0]<br/>class = Not suicide>, fillcolor="#e58139ff"] ;
179 -> 181 ;
182 [label=<entropy = 0.494<br/>samples = 74<br/>value = [8, 66]<br/>class = Suicide>, fillcolor="#399de5e0"] ;
178 -> 182 ;
183 [label=<entropy = 0.0<br/>samples = 15<br/>value = [0, 15]<br/>class = Suicide>, fillcolor="#399de5ff"] ;
177 -> 183 ;
184 [label=<entropy = 0.0<br/>samples = 3<br/>value = [3, 0]<br/>class = Not suicide>, fillcolor="#e58139ff"] ;
176 -> 184 ;
185 [label=<entropy = 0.0<br/>samples = 30<br/>value = [0, 30]<br/>class = Suicide>, fillcolor="#399de5ff"] ;
175 -> 185 ;
186 [label=<entropy = 0.0<br/>samples = 5<br/>value = [5, 0]<br/>class = Not suicide>, fillcolor="#e58139ff"] ;
174 -> 186 ;
187 [label=<entropy = 0.0<br/>samples = 51<br/>value = [0, 51]<br/>class = Suicide>, fillcolor="#399de5ff"] ;
173 -> 187 ;
188 [label=<entropy = 0.173<br/>samples = 272<br/>value = [7, 265]<br/>class = Suicide>, fillcolor="#399de5f8"] ;
172 -> 188 ;
189 [label=<entropy = 0.0<br/>samples = 19<br/>value = [19, 0]<br/>class = Not suicide>, fillcolor="#e58139ff"] ;
171 -> 189 ;
190 [label=<entropy = 0.0<br/>samples = 48<br/>value = [48, 0]<br/>class = Not suicide>, fillcolor="#e58139ff"] ;
170 -> 190 ;
191 [label=<entropy = 0.0<br/>samples = 87<br/>value = [87, 0]<br/>class = Not suicide>, fillcolor="#e58139ff"] ;
169 -> 191 ;
192 [label=<entropy = 0.0<br/>samples = 158<br/>value = [158, 0]<br/>class = Not suicide>, fillcolor="#e58139ff"] ;
168 -> 192 ;
193 [label=<Projectile &le; 0.5<br/>entropy = 0.931<br/>samples = 6833<br/>value = [2367, 4466]<br/>class = Suicide>, fillcolor="#399de578"] ;
3 -> 193 ;
194 [label=<Other_Explosive &le; 0.5<br/>entropy = 0.897<br/>samples = 6502<br/>value = [2036, 4466]<br/>class = Suicide>, fillcolor="#399de58b"] ;
193 -> 194 ;
195 [label=<Claim_via_Note &le; 0.5<br/>entropy = 0.868<br/>samples = 6284<br/>value = [1818, 4466]<br/>class = Suicide>, fillcolor="#399de597"] ;
194 -> 195 ;
196 [label=<Hostage_Kidnapping &le; 0.5<br/>entropy = 0.823<br/>samples = 5903<br/>value = [1519, 4384]<br/>class = Suicide>, fillcolor="#399de5a7"] ;
195 -> 196 ;
197 [label=<MiddleEast_NorthAfrican &le; 0.5<br/>entropy = 0.762<br/>samples = 5336<br/>value = [1178, 4158]<br/>class = Suicide>, fillcolor="#399de5b7"] ;
196 -> 197 ;
198 [label=<Afghanistan &le; 0.5<br/>entropy = 0.866<br/>samples = 3585<br/>value = [1032, 2553]<br/>class = Suicide>, fillcolor="#399de598"] ;
197 -> 198 ;
199 [label=<Happened_After_2002 &le; 0.5<br/>entropy = 0.944<br/>samples = 2649<br/>value = [959, 1690]<br/>class = Suicide>, fillcolor="#399de56e"] ;
198 -> 199 ;
200 [label=<Religious_Place_Of_Worship &le; 0.5<br/>entropy = 0.737<br/>samples = 255<br/>value = [202, 53]<br/>class = Not suicide>, fillcolor="#e58139bc"] ;
199 -> 200 ;
201 [label=<Personal_Claim &le; 0.5<br/>entropy = 0.625<br/>samples = 237<br/>value = [200, 37]<br/>class = Not suicide>, fillcolor="#e58139d0"] ;
200 -> 201 ;
202 [label=<Claim_via_Internet &le; 0.5<br/>entropy = 0.67<br/>samples = 211<br/>value = [174, 37]<br/>class = Not suicide>, fillcolor="#e58139c9"] ;
201 -> 202 ;
203 [label=<India &le; 0.5<br/>entropy = 0.693<br/>samples = 199<br/>value = [162, 37]<br/>class = Not suicide>, fillcolor="#e58139c5"] ;
202 -> 203 ;
204 [label=<Government_Politician &le; 0.5<br/>entropy = 0.709<br/>samples = 191<br/>value = [154, 37]<br/>class = Not suicide>, fillcolor="#e58139c2"] ;
203 -> 204 ;
205 [label=<Political_Building &le; 0.5<br/>entropy = 0.72<br/>samples = 186<br/>value = [149, 37]<br/>class = Not suicide>, fillcolor="#e58139c0"] ;
204 -> 205 ;
206 [label=<Utility_Location &le; 0.5<br/>entropy = 0.728<br/>samples = 182<br/>value = [145, 37]<br/>class = Not suicide>, fillcolor="#e58139be"] ;
205 -> 206 ;
207 [label=<Handgun &le; 0.5<br/>entropy = 0.735<br/>samples = 179<br/>value = [142, 37]<br/>class = Not suicide>, fillcolor="#e58139bd"] ;
206 -> 207 ;
208 [label=<Military_Barracks &le; 0.5<br/>entropy = 0.742<br/>samples = 176<br/>value = [139, 37]<br/>class = Not suicide>, fillcolor="#e58139bb"] ;
207 -> 208 ;
209 [label=<Rifle &le; 0.5<br/>entropy = 0.747<br/>samples = 174<br/>value = [137, 37]<br/>class = Not suicide>, fillcolor="#e58139ba"] ;
208 -> 209 ;
210 [label=<entropy = 0.751<br/>samples = 172<br/>value = [135, 37]<br/>class = Not suicide>, fillcolor="#e58139b9"] ;
209 -> 210 ;
211 [label=<entropy = 0.0<br/>samples = 2<br/>value = [2, 0]<br/>class = Not suicide>, fillcolor="#e58139ff"] ;
209 -> 211 ;
212 [label=<entropy = 0.0<br/>samples = 2<br/>value = [2, 0]<br/>class = Not suicide>, fillcolor="#e58139ff"] ;
208 -> 212 ;
213 [label=<entropy = 0.0<br/>samples = 3<br/>value = [3, 0]<br/>class = Not suicide>, fillcolor="#e58139ff"] ;
207 -> 213 ;
214 [label=<entropy = 0.0<br/>samples = 3<br/>value = [3, 0]<br/>class = Not suicide>, fillcolor="#e58139ff"] ;
206 -> 214 ;
215 [label=<entropy = 0.0<br/>samples = 4<br/>value = [4, 0]<br/>class = Not suicide>, fillcolor="#e58139ff"] ;
205 -> 215 ;
216 [label=<entropy = 0.0<br/>samples = 5<br/>value = [5, 0]<br/>class = Not suicide>, fillcolor="#e58139ff"] ;
204 -> 216 ;
217 [label=<entropy = 0.0<br/>samples = 8<br/>value = [8, 0]<br/>class = Not suicide>, fillcolor="#e58139ff"] ;
203 -> 217 ;
218 [label=<entropy = 0.0<br/>samples = 12<br/>value = [12, 0]<br/>class = Not suicide>, fillcolor="#e58139ff"] ;
202 -> 218 ;
219 [label=<entropy = 0.0<br/>samples = 26<br/>value = [26, 0]<br/>class = Not suicide>, fillcolor="#e58139ff"] ;
201 -> 219 ;
220 [label=<India &le; 0.5<br/>entropy = 0.503<br/>samples = 18<br/>value = [2, 16]<br/>class = Suicide>, fillcolor="#399de5df"] ;
200 -> 220 ;
221 [label=<entropy = 0.0<br/>samples = 2<br/>value = [2, 0]<br/>class = Not suicide>, fillcolor="#e58139ff"] ;
220 -> 221 ;
222 [label=<entropy = 0.0<br/>samples = 16<br/>value = [0, 16]<br/>class = Suicide>, fillcolor="#399de5ff"] ;
220 -> 222 ;
223 [label=<Rifle &le; 0.5<br/>entropy = 0.9<br/>samples = 2394<br/>value = [757, 1637]<br/>class = Suicide>, fillcolor="#399de589"] ;
199 -> 223 ;
224 [label=<India &le; 0.5<br/>entropy = 0.881<br/>samples = 2311<br/>value = [692, 1619]<br/>class = Suicide>, fillcolor="#399de592"] ;
223 -> 224 ;
225 [label=<Religious_Place_Of_Worship &le; 0.5<br/>entropy = 0.848<br/>samples = 2133<br/>value = [585, 1548]<br/>class = Suicide>, fillcolor="#399de59f"] ;
224 -> 225 ;
226 [label=<Military_Barracks &le; 0.5<br/>entropy = 0.871<br/>samples = 1949<br/>value = [568, 1381]<br/>class = Suicide>, fillcolor="#399de596"] ;
225 -> 226 ;
227 [label=<Political_Building &le; 0.5<br/>entropy = 0.89<br/>samples = 1798<br/>value = [553, 1245]<br/>class = Suicide>, fillcolor="#399de58e"] ;
226 -> 227 ;
228 [label=<Personal_Claim &le; 0.5<br/>entropy = 0.906<br/>samples = 1697<br/>value = [545, 1152]<br/>class = Suicide>, fillcolor="#399de586"] ;
227 -> 228 ;
229 [label=<Columbia &le; 0.5<br/>entropy = 0.857<br/>samples = 1239<br/>value = [348, 891]<br/>class = Suicide>, fillcolor="#399de59b"] ;
228 -> 229 ;
230 [label=<Utility_Location &le; 0.5<br/>entropy = 0.854<br/>samples = 1236<br/>value = [345, 891]<br/>class = Suicide>, fillcolor="#399de59c"] ;
229 -> 230 ;
231 [label=<Handgun &le; 0.5<br/>entropy = 0.853<br/>samples = 1234<br/>value = [343, 891]<br/>class = Suicide>, fillcolor="#399de59d"] ;
230 -> 231 ;
232 [label=<Claim_via_Internet &le; 0.5<br/>entropy = 0.845<br/>samples = 1183<br/>value = [322, 861]<br/>class = Suicide>, fillcolor="#399de5a0"] ;
231 -> 232 ;
233 [label=<Politicial_Checkpoint &le; 0.5<br/>entropy = 0.816<br/>samples = 921<br/>value = [233, 688]<br/>class = Suicide>, fillcolor="#399de5a9"] ;
232 -> 233 ;
234 [label=<Government_Politician &le; 0.5<br/>entropy = 0.821<br/>samples = 909<br/>value = [233, 676]<br/>class = Suicide>, fillcolor="#399de5a7"] ;
233 -> 234 ;
235 [label=<NonStateMilitia &le; 0.5<br/>entropy = 0.829<br/>samples = 872<br/>value = [228, 644]<br/>class = Suicide>, fillcolor="#399de5a5"] ;
234 -> 235 ;
236 [label=<Military_Checkpoint &le; 0.5<br/>entropy = 0.836<br/>samples = 841<br/>value = [224, 617]<br/>class = Suicide>, fillcolor="#399de5a2"] ;
235 -> 236 ;
237 [label=<entropy = 0.835<br/>samples = 840<br/>value = [223, 617]<br/>class = Suicide>, fillcolor="#399de5a3"] ;
236 -> 237 ;
238 [label=<entropy = 0.0<br/>samples = 1<br/>value = [1, 0]<br/>class = Not suicide>, fillcolor="#e58139ff"] ;
236 -> 238 ;
239 [label=<entropy = 0.555<br/>samples = 31<br/>value = [4, 27]<br/>class = Suicide>, fillcolor="#399de5d9"] ;
235 -> 239 ;
240 [label=<entropy = 0.571<br/>samples = 37<br/>value = [5, 32]<br/>class = Suicide>, fillcolor="#399de5d7"] ;
234 -> 240 ;
241 [label=<entropy = 0.0<br/>samples = 12<br/>value = [0, 12]<br/>class = Suicide>, fillcolor="#399de5ff"] ;
233 -> 241 ;
242 [label=<Government_Politician &le; 0.5<br/>entropy = 0.925<br/>samples = 262<br/>value = [89, 173]<br/>class = Suicide>, fillcolor="#399de57c"] ;
232 -> 242 ;
243 [label=<Politicial_Checkpoint &le; 0.5<br/>entropy = 0.917<br/>samples = 259<br/>value = [86, 173]<br/>class = Suicide>, fillcolor="#399de580"] ;
242 -> 243 ;
244 [label=<entropy = 0.914<br/>samples = 258<br/>value = [85, 173]<br/>class = Suicide>, fillcolor="#399de582"] ;
243 -> 244 ;
245 [label=<entropy = 0.0<br/>samples = 1<br/>value = [1, 0]<br/>class = Not suicide>, fillcolor="#e58139ff"] ;
243 -> 245 ;
246 [label=<entropy = 0.0<br/>samples = 3<br/>value = [3, 0]<br/>class = Not suicide>, fillcolor="#e58139ff"] ;
242 -> 246 ;
247 [label=<Claim_via_Internet &le; 0.5<br/>entropy = 0.977<br/>samples = 51<br/>value = [21, 30]<br/>class = Suicide>, fillcolor="#399de54d"] ;
231 -> 247 ;
248 [label=<entropy = 0.0<br/>samples = 14<br/>value = [14, 0]<br/>class = Not suicide>, fillcolor="#e58139ff"] ;
247 -> 248 ;
249 [label=<entropy = 0.7<br/>samples = 37<br/>value = [7, 30]<br/>class = Suicide>, fillcolor="#399de5c4"] ;
247 -> 249 ;
250 [label=<entropy = 0.0<br/>samples = 2<br/>value = [2, 0]<br/>class = Not suicide>, fillcolor="#e58139ff"] ;
230 -> 250 ;
251 [label=<entropy = 0.0<br/>samples = 3<br/>value = [3, 0]<br/>class = Not suicide>, fillcolor="#e58139ff"] ;
229 -> 251 ;
252 [label=<Military_Checkpoint &le; 0.5<br/>entropy = 0.986<br/>samples = 458<br/>value = [197, 261]<br/>class = Suicide>, fillcolor="#399de53f"] ;
228 -> 252 ;
253 [label=<Handgun &le; 0.5<br/>entropy = 0.99<br/>samples = 446<br/>value = [197, 249]<br/>class = Suicide>, fillcolor="#399de535"] ;
252 -> 253 ;
254 [label=<Government_Politician &le; 0.5<br/>entropy = 0.979<br/>samples = 392<br/>value = [163, 229]<br/>class = Suicide>, fillcolor="#399de549"] ;
253 -> 254 ;
255 [label=<NonStateMilitia &le; 0.5<br/>entropy = 0.976<br/>samples = 388<br/>value = [159, 229]<br/>class = Suicide>, fillcolor="#399de54e"] ;
254 -> 255 ;
256 [label=<Columbia &le; 0.5<br/>entropy = 0.976<br/>samples = 387<br/>value = [158, 229]<br/>class = Suicide>, fillcolor="#399de54f"] ;
255 -> 256 ;
257 [label=<entropy = 0.975<br/>samples = 386<br/>value = [157, 229]<br/>class = Suicide>, fillcolor="#399de550"] ;
256 -> 257 ;
258 [label=<entropy = 0.0<br/>samples = 1<br/>value = [1, 0]<br/>class = Not suicide>, fillcolor="#e58139ff"] ;
256 -> 258 ;
259 [label=<entropy = 0.0<br/>samples = 1<br/>value = [1, 0]<br/>class = Not suicide>, fillcolor="#e58139ff"] ;
255 -> 259 ;
260 [label=<entropy = 0.0<br/>samples = 4<br/>value = [4, 0]<br/>class = Not suicide>, fillcolor="#e58139ff"] ;
254 -> 260 ;
261 [label=<Government_Politician &le; 0.5<br/>entropy = 0.951<br/>samples = 54<br/>value = [34, 20]<br/>class = Not suicide>, fillcolor="#e5813969"] ;
253 -> 261 ;
262 [label=<entropy = 0.956<br/>samples = 53<br/>value = [33, 20]<br/>class = Not suicide>, fillcolor="#e5813964"] ;
261 -> 262 ;
263 [label=<entropy = 0.0<br/>samples = 1<br/>value = [1, 0]<br/>class = Not suicide>, fillcolor="#e58139ff"] ;
261 -> 263 ;
264 [label=<entropy = 0.0<br/>samples = 12<br/>value = [0, 12]<br/>class = Suicide>, fillcolor="#399de5ff"] ;
252 -> 264 ;
265 [label=<Claim_via_Internet &le; 0.5<br/>entropy = 0.399<br/>samples = 101<br/>value = [8, 93]<br/>class = Suicide>, fillcolor="#399de5e9"] ;
227 -> 265 ;
266 [label=<Personal_Claim &le; 0.5<br/>entropy = 0.201<br/>samples = 96<br/>value = [3, 93]<br/>class = Suicide>, fillcolor="#399de5f7"] ;
265 -> 266 ;
267 [label=<entropy = 0.276<br/>samples = 42<br/>value = [2, 40]<br/>class = Suicide>, fillcolor="#399de5f2"] ;
266 -> 267 ;
268 [label=<entropy = 0.133<br/>samples = 54<br/>value = [1, 53]<br/>class = Suicide>, fillcolor="#399de5fa"] ;
266 -> 268 ;
269 [label=<entropy = 0.0<br/>samples = 5<br/>value = [5, 0]<br/>class = Not suicide>, fillcolor="#e58139ff"] ;
265 -> 269 ;
270 [label=<Personal_Claim &le; 0.5<br/>entropy = 0.467<br/>samples = 151<br/>value = [15, 136]<br/>class = Suicide>, fillcolor="#399de5e3"] ;
226 -> 270 ;
271 [label=<entropy = 0.26<br/>samples = 91<br/>value = [4, 87]<br/>class = Suicide>, fillcolor="#399de5f3"] ;
270 -> 271 ;
272 [label=<entropy = 0.687<br/>samples = 60<br/>value = [11, 49]<br/>class = Suicide>, fillcolor="#399de5c6"] ;
270 -> 272 ;
273 [label=<Personal_Claim &le; 0.5<br/>entropy = 0.444<br/>samples = 184<br/>value = [17, 167]<br/>class = Suicide>, fillcolor="#399de5e5"] ;
225 -> 273 ;
274 [label=<Claim_via_Internet &le; 0.5<br/>entropy = 0.242<br/>samples = 125<br/>value = [5, 120]<br/>class = Suicide>, fillcolor="#399de5f4"] ;
273 -> 274 ;
275 [label=<entropy = 0.178<br/>samples = 112<br/>value = [3, 109]<br/>class = Suicide>, fillcolor="#399de5f8"] ;
274 -> 275 ;
276 [label=<entropy = 0.619<br/>samples = 13<br/>value = [2, 11]<br/>class = Suicide>, fillcolor="#399de5d1"] ;
274 -> 276 ;
277 [label=<Handgun &le; 0.5<br/>entropy = 0.729<br/>samples = 59<br/>value = [12, 47]<br/>class = Suicide>, fillcolor="#399de5be"] ;
273 -> 277 ;
278 [label=<entropy = 0.701<br/>samples = 58<br/>value = [11, 47]<br/>class = Suicide>, fillcolor="#399de5c3"] ;
277 -> 278 ;
279 [label=<entropy = 0.0<br/>samples = 1<br/>value = [1, 0]<br/>class = Not suicide>, fillcolor="#e58139ff"] ;
277 -> 279 ;
280 [label=<Military_Barracks &le; 0.5<br/>entropy = 0.97<br/>samples = 178<br/>value = [107, 71]<br/>class = Not suicide>, fillcolor="#e5813956"] ;
224 -> 280 ;
281 [label=<Political_Building &le; 0.5<br/>entropy = 0.873<br/>samples = 150<br/>value = [106, 44]<br/>class = Not suicide>, fillcolor="#e5813995"] ;
280 -> 281 ;
282 [label=<Personal_Claim &le; 0.5<br/>entropy = 0.485<br/>samples = 114<br/>value = [102, 12]<br/>class = Not suicide>, fillcolor="#e58139e1"] ;
281 -> 282 ;
283 [label=<Government_Politician &le; 0.5<br/>entropy = 0.678<br/>samples = 67<br/>value = [55, 12]<br/>class = Not suicide>, fillcolor="#e58139c7"] ;
282 -> 283 ;
284 [label=<Claim_via_Internet &le; 0.5<br/>entropy = 0.702<br/>samples = 63<br/>value = [51, 12]<br/>class = Not suicide>, fillcolor="#e58139c3"] ;
283 -> 284 ;
285 [label=<Handgun &le; 0.5<br/>entropy = 0.722<br/>samples = 60<br/>value = [48, 12]<br/>class = Not suicide>, fillcolor="#e58139bf"] ;
284 -> 285 ;
286 [label=<Religious_Place_Of_Worship &le; 0.5<br/>entropy = 0.742<br/>samples = 57<br/>value = [45, 12]<br/>class = Not suicide>, fillcolor="#e58139bb"] ;
285 -> 286 ;
287 [label=<entropy = 0.75<br/>samples = 56<br/>value = [44, 12]<br/>class = Not suicide>, fillcolor="#e58139b9"] ;
286 -> 287 ;
288 [label=<entropy = 0.0<br/>samples = 1<br/>value = [1, 0]<br/>class = Not suicide>, fillcolor="#e58139ff"] ;
286 -> 288 ;
289 [label=<entropy = 0.0<br/>samples = 3<br/>value = [3, 0]<br/>class = Not suicide>, fillcolor="#e58139ff"] ;
285 -> 289 ;
290 [label=<entropy = 0.0<br/>samples = 3<br/>value = [3, 0]<br/>class = Not suicide>, fillcolor="#e58139ff"] ;
284 -> 290 ;
291 [label=<entropy = 0.0<br/>samples = 4<br/>value = [4, 0]<br/>class = Not suicide>, fillcolor="#e58139ff"] ;
283 -> 291 ;
292 [label=<entropy = 0.0<br/>samples = 47<br/>value = [47, 0]<br/>class = Not suicide>, fillcolor="#e58139ff"] ;
282 -> 292 ;
293 [label=<Personal_Claim &le; 0.5<br/>entropy = 0.503<br/>samples = 36<br/>value = [4, 32]<br/>class = Suicide>, fillcolor="#399de5df"] ;
281 -> 293 ;
294 [label=<entropy = 0.672<br/>samples = 17<br/>value = [3, 14]<br/>class = Suicide>, fillcolor="#399de5c8"] ;
293 -> 294 ;
295 [label=<entropy = 0.297<br/>samples = 19<br/>value = [1, 18]<br/>class = Suicide>, fillcolor="#399de5f1"] ;
293 -> 295 ;
296 [label=<Claim_via_Internet &le; 0.5<br/>entropy = 0.222<br/>samples = 28<br/>value = [1, 27]<br/>class = Suicide>, fillcolor="#399de5f6"] ;
280 -> 296 ;
297 [label=<entropy = 0.391<br/>samples = 13<br/>value = [1, 12]<br/>class = Suicide>, fillcolor="#399de5ea"] ;
296 -> 297 ;
298 [label=<entropy = 0.0<br/>samples = 15<br/>value = [0, 15]<br/>class = Suicide>, fillcolor="#399de5ff"] ;
296 -> 298 ;
299 [label=<India &le; 0.5<br/>entropy = 0.754<br/>samples = 83<br/>value = [65, 18]<br/>class = Not suicide>, fillcolor="#e58139b8"] ;
223 -> 299 ;
300 [label=<entropy = 0.0<br/>samples = 58<br/>value = [58, 0]<br/>class = Not suicide>, fillcolor="#e58139ff"] ;
299 -> 300 ;
301 [label=<Personal_Claim &le; 0.5<br/>entropy = 0.855<br/>samples = 25<br/>value = [7, 18]<br/>class = Suicide>, fillcolor="#399de59c"] ;
299 -> 301 ;
302 [label=<Claim_via_Internet &le; 0.5<br/>entropy = 0.684<br/>samples = 22<br/>value = [4, 18]<br/>class = Suicide>, fillcolor="#399de5c6"] ;
301 -> 302 ;
303 [label=<entropy = 0.592<br/>samples = 21<br/>value = [3, 18]<br/>class = Suicide>, fillcolor="#399de5d4"] ;
302 -> 303 ;
304 [label=<entropy = 0.0<br/>samples = 1<br/>value = [1, 0]<br/>class = Not suicide>, fillcolor="#e58139ff"] ;
302 -> 304 ;
305 [label=<entropy = 0.0<br/>samples = 3<br/>value = [3, 0]<br/>class = Not suicide>, fillcolor="#e58139ff"] ;
301 -> 305 ;
306 [label=<Rifle &le; 0.5<br/>entropy = 0.395<br/>samples = 936<br/>value = [73, 863]<br/>class = Suicide>, fillcolor="#399de5e9"] ;
198 -> 306 ;
307 [label=<Handgun &le; 0.5<br/>entropy = 0.381<br/>samples = 932<br/>value = [69, 863]<br/>class = Suicide>, fillcolor="#399de5eb"] ;
306 -> 307 ;
308 [label=<Government_Politician &le; 0.5<br/>entropy = 0.374<br/>samples = 930<br/>value = [67, 863]<br/>class = Suicide>, fillcolor="#399de5eb"] ;
307 -> 308 ;
309 [label=<Personal_Claim &le; 0.5<br/>entropy = 0.383<br/>samples = 899<br/>value = [67, 832]<br/>class = Suicide>, fillcolor="#399de5ea"] ;
308 -> 309 ;
310 [label=<Religious_Place_Of_Worship &le; 0.5<br/>entropy = 0.425<br/>samples = 578<br/>value = [50, 528]<br/>class = Suicide>, fillcolor="#399de5e7"] ;
309 -> 310 ;
311 [label=<Political_Building &le; 0.5<br/>entropy = 0.443<br/>samples = 533<br/>value = [49, 484]<br/>class = Suicide>, fillcolor="#399de5e5"] ;
310 -> 311 ;
312 [label=<Military_Barracks &le; 0.5<br/>entropy = 0.45<br/>samples = 521<br/>value = [49, 472]<br/>class = Suicide>, fillcolor="#399de5e5"] ;
311 -> 312 ;
313 [label=<Politicial_Checkpoint &le; 0.5<br/>entropy = 0.455<br/>samples = 512<br/>value = [49, 463]<br/>class = Suicide>, fillcolor="#399de5e4"] ;
312 -> 313 ;
314 [label=<Claim_via_Internet &le; 0.5<br/>entropy = 0.454<br/>samples = 503<br/>value = [48, 455]<br/>class = Suicide>, fillcolor="#399de5e4"] ;
313 -> 314 ;
315 [label=<entropy = 0.451<br/>samples = 381<br/>value = [36, 345]<br/>class = Suicide>, fillcolor="#399de5e4"] ;
314 -> 315 ;
316 [label=<entropy = 0.464<br/>samples = 122<br/>value = [12, 110]<br/>class = Suicide>, fillcolor="#399de5e3"] ;
314 -> 316 ;
317 [label=<Claim_via_Internet &le; 0.5<br/>entropy = 0.503<br/>samples = 9<br/>value = [1, 8]<br/>class = Suicide>, fillcolor="#399de5df"] ;
313 -> 317 ;
318 [label=<entropy = 0.0<br/>samples = 1<br/>value = [1, 0]<br/>class = Not suicide>, fillcolor="#e58139ff"] ;
317 -> 318 ;
319 [label=<entropy = 0.0<br/>samples = 8<br/>value = [0, 8]<br/>class = Suicide>, fillcolor="#399de5ff"] ;
317 -> 319 ;
320 [label=<entropy = 0.0<br/>samples = 9<br/>value = [0, 9]<br/>class = Suicide>, fillcolor="#399de5ff"] ;
312 -> 320 ;
321 [label=<entropy = 0.0<br/>samples = 12<br/>value = [0, 12]<br/>class = Suicide>, fillcolor="#399de5ff"] ;
311 -> 321 ;
322 [label=<Claim_via_Internet &le; 0.5<br/>entropy = 0.154<br/>samples = 45<br/>value = [1, 44]<br/>class = Suicide>, fillcolor="#399de5f9"] ;
310 -> 322 ;
323 [label=<entropy = 0.391<br/>samples = 13<br/>value = [1, 12]<br/>class = Suicide>, fillcolor="#399de5ea"] ;
322 -> 323 ;
324 [label=<entropy = 0.0<br/>samples = 32<br/>value = [0, 32]<br/>class = Suicide>, fillcolor="#399de5ff"] ;
322 -> 324 ;
325 [label=<NonStateMilitia &le; 0.5<br/>entropy = 0.299<br/>samples = 321<br/>value = [17, 304]<br/>class = Suicide>, fillcolor="#399de5f1"] ;
309 -> 325 ;
326 [label=<Political_Building &le; 0.5<br/>entropy = 0.307<br/>samples = 309<br/>value = [17, 292]<br/>class = Suicide>, fillcolor="#399de5f0"] ;
325 -> 326 ;
327 [label=<Politicial_Checkpoint &le; 0.5<br/>entropy = 0.311<br/>samples = 286<br/>value = [16, 270]<br/>class = Suicide>, fillcolor="#399de5f0"] ;
326 -> 327 ;
328 [label=<entropy = 0.314<br/>samples = 265<br/>value = [15, 250]<br/>class = Suicide>, fillcolor="#399de5f0"] ;
327 -> 328 ;
329 [label=<entropy = 0.276<br/>samples = 21<br/>value = [1, 20]<br/>class = Suicide>, fillcolor="#399de5f2"] ;
327 -> 329 ;
330 [label=<entropy = 0.258<br/>samples = 23<br/>value = [1, 22]<br/>class = Suicide>, fillcolor="#399de5f3"] ;
326 -> 330 ;
331 [label=<entropy = 0.0<br/>samples = 12<br/>value = [0, 12]<br/>class = Suicide>, fillcolor="#399de5ff"] ;
325 -> 331 ;
332 [label=<entropy = 0.0<br/>samples = 31<br/>value = [0, 31]<br/>class = Suicide>, fillcolor="#399de5ff"] ;
308 -> 332 ;
333 [label=<entropy = 0.0<br/>samples = 2<br/>value = [2, 0]<br/>class = Not suicide>, fillcolor="#e58139ff"] ;
307 -> 333 ;
334 [label=<entropy = 0.0<br/>samples = 4<br/>value = [4, 0]<br/>class = Not suicide>, fillcolor="#e58139ff"] ;
306 -> 334 ;
335 [label=<Rifle &le; 0.5<br/>entropy = 0.414<br/>samples = 1751<br/>value = [146, 1605]<br/>class = Suicide>, fillcolor="#399de5e8"] ;
197 -> 335 ;
336 [label=<Personal_Claim &le; 0.5<br/>entropy = 0.353<br/>samples = 1711<br/>value = [114, 1597]<br/>class = Suicide>, fillcolor="#399de5ed"] ;
335 -> 336 ;
337 [label=<Handgun &le; 0.5<br/>entropy = 0.297<br/>samples = 1655<br/>value = [87, 1568]<br/>class = Suicide>, fillcolor="#399de5f1"] ;
336 -> 337 ;
338 [label=<Religious_Place_Of_Worship &le; 0.5<br/>entropy = 0.292<br/>samples = 1653<br/>value = [85, 1568]<br/>class = Suicide>, fillcolor="#399de5f1"] ;
337 -> 338 ;
339 [label=<Iraq &le; 0.5<br/>entropy = 0.306<br/>samples = 1554<br/>value = [85, 1469]<br/>class = Suicide>, fillcolor="#399de5f0"] ;
338 -> 339 ;
340 [label=<Happened_After_2002 &le; 0.5<br/>entropy = 0.371<br/>samples = 882<br/>value = [63, 819]<br/>class = Suicide>, fillcolor="#399de5eb"] ;
339 -> 340 ;
341 [label=<NonStateMilitia &le; 0.5<br/>entropy = 0.23<br/>samples = 295<br/>value = [11, 284]<br/>class = Suicide>, fillcolor="#399de5f5"] ;
340 -> 341 ;
342 [label=<Claim_via_Internet &le; 0.5<br/>entropy = 0.214<br/>samples = 294<br/>value = [10, 284]<br/>class = Suicide>, fillcolor="#399de5f6"] ;
341 -> 342 ;
343 [label=<Military_Checkpoint &le; 0.5<br/>entropy = 0.237<br/>samples = 257<br/>value = [10, 247]<br/>class = Suicide>, fillcolor="#399de5f5"] ;
342 -> 343 ;
344 [label=<entropy = 0.246<br/>samples = 245<br/>value = [10, 235]<br/>class = Suicide>, fillcolor="#399de5f4"] ;
343 -> 344 ;
345 [label=<entropy = 0.0<br/>samples = 12<br/>value = [0, 12]<br/>class = Suicide>, fillcolor="#399de5ff"] ;
343 -> 345 ;
346 [label=<entropy = 0.0<br/>samples = 37<br/>value = [0, 37]<br/>class = Suicide>, fillcolor="#399de5ff"] ;
342 -> 346 ;
347 [label=<entropy = 0.0<br/>samples = 1<br/>value = [1, 0]<br/>class = Not suicide>, fillcolor="#e58139ff"] ;
341 -> 347 ;
348 [label=<Military_Barracks &le; 0.5<br/>entropy = 0.432<br/>samples = 587<br/>value = [52, 535]<br/>class = Suicide>, fillcolor="#399de5e6"] ;
340 -> 348 ;
349 [label=<Claim_via_Internet &le; 0.5<br/>entropy = 0.426<br/>samples = 586<br/>value = [51, 535]<br/>class = Suicide>, fillcolor="#399de5e7"] ;
348 -> 349 ;
350 [label=<Political_Building &le; 0.5<br/>entropy = 0.326<br/>samples = 268<br/>value = [16, 252]<br/>class = Suicide>, fillcolor="#399de5ef"] ;
349 -> 350 ;
351 [label=<Politicial_Checkpoint &le; 0.5<br/>entropy = 0.297<br/>samples = 266<br/>value = [14, 252]<br/>class = Suicide>, fillcolor="#399de5f1"] ;
350 -> 351 ;
352 [label=<entropy = 0.309<br/>samples = 253<br/>value = [14, 239]<br/>class = Suicide>, fillcolor="#399de5f0"] ;
351 -> 352 ;
353 [label=<entropy = 0.0<br/>samples = 13<br/>value = [0, 13]<br/>class = Suicide>, fillcolor="#399de5ff"] ;
351 -> 353 ;
354 [label=<entropy = 0.0<br/>samples = 2<br/>value = [2, 0]<br/>class = Not suicide>, fillcolor="#e58139ff"] ;
350 -> 354 ;
355 [label=<Utility_Location &le; 0.5<br/>entropy = 0.5<br/>samples = 318<br/>value = [35, 283]<br/>class = Suicide>, fillcolor="#399de5df"] ;
349 -> 355 ;
356 [label=<Political_Building &le; 0.5<br/>entropy = 0.512<br/>samples = 307<br/>value = [35, 272]<br/>class = Suicide>, fillcolor="#399de5de"] ;
355 -> 356 ;
357 [label=<Syria &le; 0.5<br/>entropy = 0.533<br/>samples = 280<br/>value = [34, 246]<br/>class = Suicide>, fillcolor="#399de5dc"] ;
356 -> 357 ;
358 [label=<Military_Checkpoint &le; 0.5<br/>entropy = 0.572<br/>samples = 214<br/>value = [29, 185]<br/>class = Suicide>, fillcolor="#399de5d7"] ;
357 -> 358 ;
359 [label=<entropy = 0.606<br/>samples = 182<br/>value = [27, 155]<br/>class = Suicide>, fillcolor="#399de5d3"] ;
358 -> 359 ;
360 [label=<entropy = 0.337<br/>samples = 32<br/>value = [2, 30]<br/>class = Suicide>, fillcolor="#399de5ee"] ;
358 -> 360 ;
361 [label=<entropy = 0.387<br/>samples = 66<br/>value = [5, 61]<br/>class = Suicide>, fillcolor="#399de5ea"] ;
357 -> 361 ;
362 [label=<entropy = 0.229<br/>samples = 27<br/>value = [1, 26]<br/>class = Suicide>, fillcolor="#399de5f5"] ;
356 -> 362 ;
363 [label=<entropy = 0.0<br/>samples = 11<br/>value = [0, 11]<br/>class = Suicide>, fillcolor="#399de5ff"] ;
355 -> 363 ;
364 [label=<entropy = 0.0<br/>samples = 1<br/>value = [1, 0]<br/>class = Not suicide>, fillcolor="#e58139ff"] ;
348 -> 364 ;
365 [label=<Claim_via_Internet &le; 0.5<br/>entropy = 0.208<br/>samples = 672<br/>value = [22, 650]<br/>class = Suicide>, fillcolor="#399de5f6"] ;
339 -> 365 ;
366 [label=<Government_Politician &le; 0.5<br/>entropy = 0.457<br/>samples = 52<br/>value = [5, 47]<br/>class = Suicide>, fillcolor="#399de5e4"] ;
365 -> 366 ;
367 [label=<Political_Building &le; 0.5<br/>entropy = 0.397<br/>samples = 51<br/>value = [4, 47]<br/>class = Suicide>, fillcolor="#399de5e9"] ;
366 -> 367 ;
368 [label=<entropy = 0.503<br/>samples = 36<br/>value = [4, 32]<br/>class = Suicide>, fillcolor="#399de5df"] ;
367 -> 368 ;
369 [label=<entropy = 0.0<br/>samples = 15<br/>value = [0, 15]<br/>class = Suicide>, fillcolor="#399de5ff"] ;
367 -> 369 ;
370 [label=<entropy = 0.0<br/>samples = 1<br/>value = [1, 0]<br/>class = Not suicide>, fillcolor="#e58139ff"] ;
366 -> 370 ;
371 [label=<Political_Building &le; 0.5<br/>entropy = 0.181<br/>samples = 620<br/>value = [17, 603]<br/>class = Suicide>, fillcolor="#399de5f8"] ;
365 -> 371 ;
372 [label=<Government_Politician &le; 0.5<br/>entropy = 0.187<br/>samples = 594<br/>value = [17, 577]<br/>class = Suicide>, fillcolor="#399de5f7"] ;
371 -> 372 ;
373 [label=<NonStateMilitia &le; 0.5<br/>entropy = 0.191<br/>samples = 581<br/>value = [17, 564]<br/>class = Suicide>, fillcolor="#399de5f7"] ;
372 -> 373 ;
374 [label=<Military_Barracks &le; 0.5<br/>entropy = 0.193<br/>samples = 573<br/>value = [17, 556]<br/>class = Suicide>, fillcolor="#399de5f7"] ;
373 -> 374 ;
375 [label=<entropy = 0.191<br/>samples = 546<br/>value = [16, 530]<br/>class = Suicide>, fillcolor="#399de5f7"] ;
374 -> 375 ;
376 [label=<entropy = 0.229<br/>samples = 27<br/>value = [1, 26]<br/>class = Suicide>, fillcolor="#399de5f5"] ;
374 -> 376 ;
377 [label=<entropy = 0.0<br/>samples = 8<br/>value = [0, 8]<br/>class = Suicide>, fillcolor="#399de5ff"] ;
373 -> 377 ;
378 [label=<entropy = 0.0<br/>samples = 13<br/>value = [0, 13]<br/>class = Suicide>, fillcolor="#399de5ff"] ;
372 -> 378 ;
379 [label=<entropy = 0.0<br/>samples = 26<br/>value = [0, 26]<br/>class = Suicide>, fillcolor="#399de5ff"] ;
371 -> 379 ;
380 [label=<entropy = 0.0<br/>samples = 99<br/>value = [0, 99]<br/>class = Suicide>, fillcolor="#399de5ff"] ;
338 -> 380 ;
381 [label=<entropy = 0.0<br/>samples = 2<br/>value = [2, 0]<br/>class = Not suicide>, fillcolor="#e58139ff"] ;
337 -> 381 ;
382 [label=<Syria &le; 0.5<br/>entropy = 0.999<br/>samples = 56<br/>value = [27, 29]<br/>class = Suicide>, fillcolor="#399de512"] ;
336 -> 382 ;
383 [label=<Iraq &le; 0.5<br/>entropy = 0.927<br/>samples = 38<br/>value = [25, 13]<br/>class = Not suicide>, fillcolor="#e581397a"] ;
382 -> 383 ;
384 [label=<entropy = 0.0<br/>samples = 24<br/>value = [24, 0]<br/>class = Not suicide>, fillcolor="#e58139ff"] ;
383 -> 384 ;
385 [label=<entropy = 0.371<br/>samples = 14<br/>value = [1, 13]<br/>class = Suicide>, fillcolor="#399de5eb"] ;
383 -> 385 ;
386 [label=<entropy = 0.503<br/>samples = 18<br/>value = [2, 16]<br/>class = Suicide>, fillcolor="#399de5df"] ;
382 -> 386 ;
387 [label=<Claim_via_Internet &le; 0.5<br/>entropy = 0.722<br/>samples = 40<br/>value = [32, 8]<br/>class = Not suicide>, fillcolor="#e58139bf"] ;
335 -> 387 ;
388 [label=<Personal_Claim &le; 0.5<br/>entropy = 0.877<br/>samples = 27<br/>value = [19, 8]<br/>class = Not suicide>, fillcolor="#e5813994"] ;
387 -> 388 ;
389 [label=<Happened_After_2002 &le; 0.5<br/>entropy = 0.971<br/>samples = 20<br/>value = [12, 8]<br/>class = Not suicide>, fillcolor="#e5813955"] ;
388 -> 389 ;
390 [label=<entropy = 0.0<br/>samples = 3<br/>value = [3, 0]<br/>class = Not suicide>, fillcolor="#e58139ff"] ;
389 -> 390 ;
391 [label=<Religious_Place_Of_Worship &le; 0.5<br/>entropy = 0.998<br/>samples = 17<br/>value = [9, 8]<br/>class = Not suicide>, fillcolor="#e581391c"] ;
389 -> 391 ;
392 [label=<entropy = 1.0<br/>samples = 16<br/>value = [8, 8]<br/>class = Not suicide>, fillcolor="#e5813900"] ;
391 -> 392 ;
393 [label=<entropy = 0.0<br/>samples = 1<br/>value = [1, 0]<br/>class = Not suicide>, fillcolor="#e58139ff"] ;
391 -> 393 ;
394 [label=<entropy = 0.0<br/>samples = 7<br/>value = [7, 0]<br/>class = Not suicide>, fillcolor="#e58139ff"] ;
388 -> 394 ;
395 [label=<entropy = 0.0<br/>samples = 13<br/>value = [13, 0]<br/>class = Not suicide>, fillcolor="#e58139ff"] ;
387 -> 395 ;
396 [label=<Afghanistan &le; 0.5<br/>entropy = 0.97<br/>samples = 567<br/>value = [341, 226]<br/>class = Not suicide>, fillcolor="#e5813956"] ;
196 -> 396 ;
397 [label=<Religious_Place_Of_Worship &le; 0.5<br/>entropy = 0.905<br/>samples = 449<br/>value = [305, 144]<br/>class = Not suicide>, fillcolor="#e5813987"] ;
396 -> 397 ;
398 [label=<Happened_After_2002 &le; 0.5<br/>entropy = 0.873<br/>samples = 430<br/>value = [304, 126]<br/>class = Not suicide>, fillcolor="#e5813995"] ;
397 -> 398 ;
399 [label=<entropy = 0.0<br/>samples = 43<br/>value = [43, 0]<br/>class = Not suicide>, fillcolor="#e58139ff"] ;
398 -> 399 ;
400 [label=<Political_Building &le; 0.5<br/>entropy = 0.91<br/>samples = 387<br/>value = [261, 126]<br/>class = Not suicide>, fillcolor="#e5813984"] ;
398 -> 400 ;
401 [label=<Syria &le; 0.5<br/>entropy = 0.883<br/>samples = 372<br/>value = [260, 112]<br/>class = Not suicide>, fillcolor="#e5813991"] ;
400 -> 401 ;
402 [label=<Handgun &le; 0.5<br/>entropy = 0.895<br/>samples = 359<br/>value = [247, 112]<br/>class = Not suicide>, fillcolor="#e581398b"] ;
401 -> 402 ;
403 [label=<Claim_via_Internet &le; 0.5<br/>entropy = 0.904<br/>samples = 350<br/>value = [238, 112]<br/>class = Not suicide>, fillcolor="#e5813987"] ;
402 -> 403 ;
404 [label=<India &le; 0.5<br/>entropy = 0.877<br/>samples = 307<br/>value = [216, 91]<br/>class = Not suicide>, fillcolor="#e5813994"] ;
403 -> 404 ;
405 [label=<MiddleEast_NorthAfrican &le; 0.5<br/>entropy = 0.837<br/>samples = 262<br/>value = [192, 70]<br/>class = Not suicide>, fillcolor="#e58139a2"] ;
404 -> 405 ;
406 [label=<Rifle &le; 0.5<br/>entropy = 0.748<br/>samples = 178<br/>value = [140, 38]<br/>class = Not suicide>, fillcolor="#e58139ba"] ;
405 -> 406 ;
407 [label=<Personal_Claim &le; 0.5<br/>entropy = 0.632<br/>samples = 151<br/>value = [127, 24]<br/>class = Not suicide>, fillcolor="#e58139cf"] ;
406 -> 407 ;
408 [label=<Columbia &le; 0.5<br/>entropy = 0.828<br/>samples = 92<br/>value = [68, 24]<br/>class = Not suicide>, fillcolor="#e58139a5"] ;
407 -> 408 ;
409 [label=<Government_Politician &le; 0.5<br/>entropy = 0.841<br/>samples = 89<br/>value = [65, 24]<br/>class = Not suicide>, fillcolor="#e58139a1"] ;
408 -> 409 ;
410 [label=<entropy = 0.854<br/>samples = 86<br/>value = [62, 24]<br/>class = Not suicide>, fillcolor="#e581399c"] ;
409 -> 410 ;
411 [label=<entropy = 0.0<br/>samples = 3<br/>value = [3, 0]<br/>class = Not suicide>, fillcolor="#e58139ff"] ;
409 -> 411 ;
412 [label=<entropy = 0.0<br/>samples = 3<br/>value = [3, 0]<br/>class = Not suicide>, fillcolor="#e58139ff"] ;
408 -> 412 ;
413 [label=<entropy = 0.0<br/>samples = 59<br/>value = [59, 0]<br/>class = Not suicide>, fillcolor="#e58139ff"] ;
407 -> 413 ;
414 [label=<Personal_Claim &le; 0.5<br/>entropy = 0.999<br/>samples = 27<br/>value = [13, 14]<br/>class = Suicide>, fillcolor="#399de512"] ;
406 -> 414 ;
415 [label=<entropy = 0.0<br/>samples = 7<br/>value = [7, 0]<br/>class = Not suicide>, fillcolor="#e58139ff"] ;
414 -> 415 ;
416 [label=<entropy = 0.881<br/>samples = 20<br/>value = [6, 14]<br/>class = Suicide>, fillcolor="#399de592"] ;
414 -> 416 ;
417 [label=<Rifle &le; 0.5<br/>entropy = 0.959<br/>samples = 84<br/>value = [52, 32]<br/>class = Not suicide>, fillcolor="#e5813962"] ;
405 -> 417 ;
418 [label=<Iraq &le; 0.5<br/>entropy = 0.996<br/>samples = 69<br/>value = [37, 32]<br/>class = Not suicide>, fillcolor="#e5813922"] ;
417 -> 418 ;
419 [label=<Personal_Claim &le; 0.5<br/>entropy = 0.982<br/>samples = 38<br/>value = [22, 16]<br/>class = Not suicide>, fillcolor="#e5813946"] ;
418 -> 419 ;
420 [label=<entropy = 0.0<br/>samples = 15<br/>value = [15, 0]<br/>class = Not suicide>, fillcolor="#e58139ff"] ;
419 -> 420 ;
421 [label=<entropy = 0.887<br/>samples = 23<br/>value = [7, 16]<br/>class = Suicide>, fillcolor="#399de58f"] ;
419 -> 421 ;
422 [label=<Personal_Claim &le; 0.5<br/>entropy = 0.999<br/>samples = 31<br/>value = [15, 16]<br/>class = Suicide>, fillcolor="#399de510"] ;
418 -> 422 ;
423 [label=<entropy = 0.845<br/>samples = 22<br/>value = [6, 16]<br/>class = Suicide>, fillcolor="#399de59f"] ;
422 -> 423 ;
424 [label=<entropy = 0.0<br/>samples = 9<br/>value = [9, 0]<br/>class = Not suicide>, fillcolor="#e58139ff"] ;
422 -> 424 ;
425 [label=<entropy = 0.0<br/>samples = 15<br/>value = [15, 0]<br/>class = Not suicide>, fillcolor="#e58139ff"] ;
417 -> 425 ;
426 [label=<Personal_Claim &le; 0.5<br/>entropy = 0.997<br/>samples = 45<br/>value = [24, 21]<br/>class = Not suicide>, fillcolor="#e5813920"] ;
404 -> 426 ;
427 [label=<Rifle &le; 0.5<br/>entropy = 1.0<br/>samples = 41<br/>value = [20, 21]<br/>class = Suicide>, fillcolor="#399de50c"] ;
426 -> 427 ;
428 [label=<NonStateMilitia &le; 0.5<br/>entropy = 0.996<br/>samples = 39<br/>value = [18, 21]<br/>class = Suicide>, fillcolor="#399de524"] ;
427 -> 428 ;
429 [label=<Government_Politician &le; 0.5<br/>entropy = 0.992<br/>samples = 38<br/>value = [17, 21]<br/>class = Suicide>, fillcolor="#399de531"] ;
428 -> 429 ;
430 [label=<entropy = 0.987<br/>samples = 37<br/>value = [16, 21]<br/>class = Suicide>, fillcolor="#399de53d"] ;
429 -> 430 ;
431 [label=<entropy = 0.0<br/>samples = 1<br/>value = [1, 0]<br/>class = Not suicide>, fillcolor="#e58139ff"] ;
429 -> 431 ;
432 [label=<entropy = 0.0<br/>samples = 1<br/>value = [1, 0]<br/>class = Not suicide>, fillcolor="#e58139ff"] ;
428 -> 432 ;
433 [label=<entropy = 0.0<br/>samples = 2<br/>value = [2, 0]<br/>class = Not suicide>, fillcolor="#e58139ff"] ;
427 -> 433 ;
434 [label=<entropy = 0.0<br/>samples = 4<br/>value = [4, 0]<br/>class = Not suicide>, fillcolor="#e58139ff"] ;
426 -> 434 ;
435 [label=<MiddleEast_NorthAfrican &le; 0.5<br/>entropy = 1.0<br/>samples = 43<br/>value = [22, 21]<br/>class = Not suicide>, fillcolor="#e581390c"] ;
403 -> 435 ;
436 [label=<Rifle &le; 0.5<br/>entropy = 0.881<br/>samples = 30<br/>value = [9, 21]<br/>class = Suicide>, fillcolor="#399de592"] ;
435 -> 436 ;
437 [label=<entropy = 0.85<br/>samples = 29<br/>value = [8, 21]<br/>class = Suicide>, fillcolor="#399de59e"] ;
436 -> 437 ;
438 [label=<entropy = 0.0<br/>samples = 1<br/>value = [1, 0]<br/>class = Not suicide>, fillcolor="#e58139ff"] ;
436 -> 438 ;
439 [label=<entropy = 0.0<br/>samples = 13<br/>value = [13, 0]<br/>class = Not suicide>, fillcolor="#e58139ff"] ;
435 -> 439 ;
440 [label=<entropy = 0.0<br/>samples = 9<br/>value = [9, 0]<br/>class = Not suicide>, fillcolor="#e58139ff"] ;
402 -> 440 ;
441 [label=<entropy = 0.0<br/>samples = 13<br/>value = [13, 0]<br/>class = Not suicide>, fillcolor="#e58139ff"] ;
401 -> 441 ;
442 [label=<Personal_Claim &le; 0.5<br/>entropy = 0.353<br/>samples = 15<br/>value = [1, 14]<br/>class = Suicide>, fillcolor="#399de5ed"] ;
400 -> 442 ;
443 [label=<entropy = 0.0<br/>samples = 14<br/>value = [0, 14]<br/>class = Suicide>, fillcolor="#399de5ff"] ;
442 -> 443 ;
444 [label=<entropy = 0.0<br/>samples = 1<br/>value = [1, 0]<br/>class = Not suicide>, fillcolor="#e58139ff"] ;
442 -> 444 ;
445 [label=<Iraq &le; 0.5<br/>entropy = 0.297<br/>samples = 19<br/>value = [1, 18]<br/>class = Suicide>, fillcolor="#399de5f1"] ;
397 -> 445 ;
446 [label=<entropy = 0.0<br/>samples = 1<br/>value = [1, 0]<br/>class = Not suicide>, fillcolor="#e58139ff"] ;
445 -> 446 ;
447 [label=<entropy = 0.0<br/>samples = 18<br/>value = [0, 18]<br/>class = Suicide>, fillcolor="#399de5ff"] ;
445 -> 447 ;
448 [label=<NonStateMilitia &le; 0.5<br/>entropy = 0.887<br/>samples = 118<br/>value = [36, 82]<br/>class = Suicide>, fillcolor="#399de58f"] ;
396 -> 448 ;
449 [label=<Personal_Claim &le; 0.5<br/>entropy = 0.88<br/>samples = 117<br/>value = [35, 82]<br/>class = Suicide>, fillcolor="#399de592"] ;
448 -> 449 ;
450 [label=<Claim_via_Internet &le; 0.5<br/>entropy = 0.924<br/>samples = 62<br/>value = [21, 41]<br/>class = Suicide>, fillcolor="#399de57c"] ;
449 -> 450 ;
451 [label=<entropy = 0.96<br/>samples = 47<br/>value = [18, 29]<br/>class = Suicide>, fillcolor="#399de561"] ;
450 -> 451 ;
452 [label=<entropy = 0.722<br/>samples = 15<br/>value = [3, 12]<br/>class = Suicide>, fillcolor="#399de5bf"] ;
450 -> 452 ;
453 [label=<entropy = 0.818<br/>samples = 55<br/>value = [14, 41]<br/>class = Suicide>, fillcolor="#399de5a8"] ;
449 -> 453 ;
454 [label=<entropy = 0.0<br/>samples = 1<br/>value = [1, 0]<br/>class = Not suicide>, fillcolor="#e58139ff"] ;
448 -> 454 ;
455 [label=<Military_Barracks &le; 0.5<br/>entropy = 0.751<br/>samples = 381<br/>value = [299, 82]<br/>class = Not suicide>, fillcolor="#e58139b9"] ;
195 -> 455 ;
456 [label=<Political_Building &le; 0.5<br/>entropy = 0.669<br/>samples = 360<br/>value = [297, 63]<br/>class = Not suicide>, fillcolor="#e58139c9"] ;
455 -> 456 ;
457 [label=<India &le; 0.5<br/>entropy = 0.582<br/>samples = 338<br/>value = [291, 47]<br/>class = Not suicide>, fillcolor="#e58139d6"] ;
456 -> 457 ;
458 [label=<Rifle &le; 0.5<br/>entropy = 0.839<br/>samples = 175<br/>value = [128, 47]<br/>class = Not suicide>, fillcolor="#e58139a1"] ;
457 -> 458 ;
459 [label=<Happened_After_2002 &le; 0.5<br/>entropy = 0.73<br/>samples = 152<br/>value = [121, 31]<br/>class = Not suicide>, fillcolor="#e58139be"] ;
458 -> 459 ;
460 [label=<entropy = 0.0<br/>samples = 24<br/>value = [24, 0]<br/>class = Not suicide>, fillcolor="#e58139ff"] ;
459 -> 460 ;
461 [label=<Handgun &le; 0.5<br/>entropy = 0.799<br/>samples = 128<br/>value = [97, 31]<br/>class = Not suicide>, fillcolor="#e58139ae"] ;
459 -> 461 ;
462 [label=<Hostage_Kidnapping &le; 0.5<br/>entropy = 0.834<br/>samples = 117<br/>value = [86, 31]<br/>class = Not suicide>, fillcolor="#e58139a3"] ;
461 -> 462 ;
463 [label=<Religious_Place_Of_Worship &le; 0.5<br/>entropy = 0.861<br/>samples = 109<br/>value = [78, 31]<br/>class = Not suicide>, fillcolor="#e581399a"] ;
462 -> 463 ;
464 [label=<MiddleEast_NorthAfrican &le; 0.5<br/>entropy = 0.882<br/>samples = 103<br/>value = [72, 31]<br/>class = Not suicide>, fillcolor="#e5813991"] ;
463 -> 464 ;
465 [label=<NonStateMilitia &le; 0.5<br/>entropy = 0.9<br/>samples = 98<br/>value = [67, 31]<br/>class = Not suicide>, fillcolor="#e5813989"] ;
464 -> 465 ;
466 [label=<Utility_Location &le; 0.5<br/>entropy = 0.908<br/>samples = 96<br/>value = [65, 31]<br/>class = Not suicide>, fillcolor="#e5813985"] ;
465 -> 466 ;
467 [label=<Afghanistan &le; 0.5<br/>entropy = 0.911<br/>samples = 95<br/>value = [64, 31]<br/>class = Not suicide>, fillcolor="#e5813983"] ;
466 -> 467 ;
468 [label=<entropy = 0.915<br/>samples = 94<br/>value = [63, 31]<br/>class = Not suicide>, fillcolor="#e5813982"] ;
467 -> 468 ;
469 [label=<entropy = 0.0<br/>samples = 1<br/>value = [1, 0]<br/>class = Not suicide>, fillcolor="#e58139ff"] ;
467 -> 469 ;
470 [label=<entropy = 0.0<br/>samples = 1<br/>value = [1, 0]<br/>class = Not suicide>, fillcolor="#e58139ff"] ;
466 -> 470 ;
471 [label=<entropy = 0.0<br/>samples = 2<br/>value = [2, 0]<br/>class = Not suicide>, fillcolor="#e58139ff"] ;
465 -> 471 ;
472 [label=<entropy = 0.0<br/>samples = 5<br/>value = [5, 0]<br/>class = Not suicide>, fillcolor="#e58139ff"] ;
464 -> 472 ;
473 [label=<entropy = 0.0<br/>samples = 6<br/>value = [6, 0]<br/>class = Not suicide>, fillcolor="#e58139ff"] ;
463 -> 473 ;
474 [label=<entropy = 0.0<br/>samples = 8<br/>value = [8, 0]<br/>class = Not suicide>, fillcolor="#e58139ff"] ;
462 -> 474 ;
475 [label=<entropy = 0.0<br/>samples = 11<br/>value = [11, 0]<br/>class = Not suicide>, fillcolor="#e58139ff"] ;
461 -> 475 ;
476 [label=<Happened_After_2002 &le; 0.5<br/>entropy = 0.887<br/>samples = 23<br/>value = [7, 16]<br/>class = Suicide>, fillcolor="#399de58f"] ;
458 -> 476 ;
477 [label=<entropy = 0.0<br/>samples = 16<br/>value = [0, 16]<br/>class = Suicide>, fillcolor="#399de5ff"] ;
476 -> 477 ;
478 [label=<entropy = 0.0<br/>samples = 7<br/>value = [7, 0]<br/>class = Not suicide>, fillcolor="#e58139ff"] ;
476 -> 478 ;
479 [label=<entropy = 0.0<br/>samples = 163<br/>value = [163, 0]<br/>class = Not suicide>, fillcolor="#e58139ff"] ;
457 -> 479 ;
480 [label=<Rifle &le; 0.5<br/>entropy = 0.845<br/>samples = 22<br/>value = [6, 16]<br/>class = Suicide>, fillcolor="#399de59f"] ;
456 -> 480 ;
481 [label=<entropy = 0.792<br/>samples = 21<br/>value = [5, 16]<br/>class = Suicide>, fillcolor="#399de5af"] ;
480 -> 481 ;
482 [label=<entropy = 0.0<br/>samples = 1<br/>value = [1, 0]<br/>class = Not suicide>, fillcolor="#e58139ff"] ;
480 -> 482 ;
483 [label=<Hostage_Kidnapping &le; 0.5<br/>entropy = 0.454<br/>samples = 21<br/>value = [2, 19]<br/>class = Suicide>, fillcolor="#399de5e4"] ;
455 -> 483 ;
484 [label=<entropy = 0.0<br/>samples = 2<br/>value = [2, 0]<br/>class = Not suicide>, fillcolor="#e58139ff"] ;
483 -> 484 ;
485 [label=<entropy = 0.0<br/>samples = 19<br/>value = [0, 19]<br/>class = Suicide>, fillcolor="#399de5ff"] ;
483 -> 485 ;
486 [label=<entropy = 0.0<br/>samples = 218<br/>value = [218, 0]<br/>class = Not suicide>, fillcolor="#e58139ff"] ;
194 -> 486 ;
487 [label=<entropy = 0.0<br/>samples = 331<br/>value = [331, 0]<br/>class = Not suicide>, fillcolor="#e58139ff"] ;
193 -> 487 ;
488 [label=<Hostage_Kidnapping &le; 0.5<br/>entropy = 0.056<br/>samples = 2203<br/>value = [2189, 14]<br/>class = Not suicide>, fillcolor="#e58139fd"] ;
2 -> 488 ;
489 [label=<entropy = 0.0<br/>samples = 2161<br/>value = [2161, 0]<br/>class = Not suicide>, fillcolor="#e58139ff"] ;
488 -> 489 ;
490 [label=<India &le; 0.5<br/>entropy = 0.918<br/>samples = 42<br/>value = [28, 14]<br/>class = Not suicide>, fillcolor="#e581397f"] ;
488 -> 490 ;
491 [label=<entropy = 0.0<br/>samples = 23<br/>value = [23, 0]<br/>class = Not suicide>, fillcolor="#e58139ff"] ;
490 -> 491 ;
492 [label=<Claimed_responsibility &le; 0.5<br/>entropy = 0.831<br/>samples = 19<br/>value = [5, 14]<br/>class = Suicide>, fillcolor="#399de5a4"] ;
490 -> 492 ;
493 [label=<entropy = 0.353<br/>samples = 15<br/>value = [1, 14]<br/>class = Suicide>, fillcolor="#399de5ed"] ;
492 -> 493 ;
494 [label=<entropy = 0.0<br/>samples = 4<br/>value = [4, 0]<br/>class = Not suicide>, fillcolor="#e58139ff"] ;
492 -> 494 ;
495 [label=<Military_Barracks &le; 0.5<br/>entropy = 0.023<br/>samples = 3919<br/>value = [3910, 9]<br/>class = Not suicide>, fillcolor="#e58139fe"] ;
1 -> 495 ;
496 [label=<entropy = 0.0<br/>samples = 3852<br/>value = [3852, 0]<br/>class = Not suicide>, fillcolor="#e58139ff"] ;
495 -> 496 ;
497 [label=<Hostage_Kidnapping &le; 0.5<br/>entropy = 0.569<br/>samples = 67<br/>value = [58, 9]<br/>class = Not suicide>, fillcolor="#e58139d7"] ;
495 -> 497 ;
498 [label=<entropy = 0.0<br/>samples = 49<br/>value = [49, 0]<br/>class = Not suicide>, fillcolor="#e58139ff"] ;
497 -> 498 ;
499 [label=<Claimed_responsibility &le; 0.5<br/>entropy = 1.0<br/>samples = 18<br/>value = [9, 9]<br/>class = Not suicide>, fillcolor="#e5813900"] ;
497 -> 499 ;
500 [label=<entropy = 0.0<br/>samples = 3<br/>value = [3, 0]<br/>class = Not suicide>, fillcolor="#e58139ff"] ;
499 -> 500 ;
501 [label=<MiddleEast_NorthAfrican &le; 0.5<br/>entropy = 0.971<br/>samples = 15<br/>value = [6, 9]<br/>class = Suicide>, fillcolor="#399de555"] ;
499 -> 501 ;
502 [label=<Claim_via_Note &le; 0.5<br/>entropy = 0.89<br/>samples = 13<br/>value = [4, 9]<br/>class = Suicide>, fillcolor="#399de58e"] ;
501 -> 502 ;
503 [label=<Personal_Claim &le; 0.5<br/>entropy = 0.811<br/>samples = 12<br/>value = [3, 9]<br/>class = Suicide>, fillcolor="#399de5aa"] ;
502 -> 503 ;
504 [label=<entropy = 0.684<br/>samples = 11<br/>value = [2, 9]<br/>class = Suicide>, fillcolor="#399de5c6"] ;
503 -> 504 ;
505 [label=<entropy = 0.0<br/>samples = 1<br/>value = [1, 0]<br/>class = Not suicide>, fillcolor="#e58139ff"] ;
503 -> 505 ;
506 [label=<entropy = 0.0<br/>samples = 1<br/>value = [1, 0]<br/>class = Not suicide>, fillcolor="#e58139ff"] ;
502 -> 506 ;
507 [label=<entropy = 0.0<br/>samples = 2<br/>value = [2, 0]<br/>class = Not suicide>, fillcolor="#e58139ff"] ;
501 -> 507 ;
508 [label=<Iraq &le; 0.5<br/>entropy = 0.462<br/>samples = 7449<br/>value = [728, 6721]<br/>class = Suicide>, fillcolor="#399de5e3"] ;
0 -> 508 [labeldistance=2.5, labelangle=-45, headlabel="False"] ;
509 [label=<Claimed_responsibility &le; 0.5<br/>entropy = 0.332<br/>samples = 4975<br/>value = [304, 4671]<br/>class = Suicide>, fillcolor="#399de5ee"] ;
508 -> 509 ;
510 [label=<Afghanistan &le; 0.5<br/>entropy = 0.555<br/>samples = 1416<br/>value = [183, 1233]<br/>class = Suicide>, fillcolor="#399de5d9"] ;
509 -> 510 ;
511 [label=<Columbia &le; 0.5<br/>entropy = 0.626<br/>samples = 1136<br/>value = [178, 958]<br/>class = Suicide>, fillcolor="#399de5d0"] ;
510 -> 511 ;
512 [label=<India &le; 0.5<br/>entropy = 0.604<br/>samples = 1124<br/>value = [166, 958]<br/>class = Suicide>, fillcolor="#399de5d3"] ;
511 -> 512 ;
513 [label=<Government_Politician &le; 0.5<br/>entropy = 0.59<br/>samples = 1117<br/>value = [159, 958]<br/>class = Suicide>, fillcolor="#399de5d5"] ;
512 -> 513 ;
514 [label=<Military_Barracks &le; 0.5<br/>entropy = 0.58<br/>samples = 1112<br/>value = [154, 958]<br/>class = Suicide>, fillcolor="#399de5d6"] ;
513 -> 514 ;
515 [label=<Happened_After_2002 &le; 0.5<br/>entropy = 0.609<br/>samples = 1009<br/>value = [151, 858]<br/>class = Suicide>, fillcolor="#399de5d2"] ;
514 -> 515 ;
516 [label=<MiddleEast_NorthAfrican &le; 0.5<br/>entropy = 0.849<br/>samples = 98<br/>value = [27, 71]<br/>class = Suicide>, fillcolor="#399de59e"] ;
515 -> 516 ;
517 [label=<entropy = 0.971<br/>samples = 45<br/>value = [18, 27]<br/>class = Suicide>, fillcolor="#399de555"] ;
516 -> 517 ;
518 [label=<entropy = 0.657<br/>samples = 53<br/>value = [9, 44]<br/>class = Suicide>, fillcolor="#399de5cb"] ;
516 -> 518 ;
519 [label=<NonStateMilitia &le; 0.5<br/>entropy = 0.574<br/>samples = 911<br/>value = [124, 787]<br/>class = Suicide>, fillcolor="#399de5d7"] ;
515 -> 519 ;
520 [label=<Military_Checkpoint &le; 0.5<br/>entropy = 0.591<br/>samples = 862<br/>value = [123, 739]<br/>class = Suicide>, fillcolor="#399de5d5"] ;
519 -> 520 ;
521 [label=<Syria &le; 0.5<br/>entropy = 0.604<br/>samples = 819<br/>value = [121, 698]<br/>class = Suicide>, fillcolor="#399de5d3"] ;
520 -> 521 ;
522 [label=<Religious_Place_Of_Worship &le; 0.5<br/>entropy = 0.615<br/>samples = 749<br/>value = [114, 635]<br/>class = Suicide>, fillcolor="#399de5d1"] ;
521 -> 522 ;
523 [label=<MiddleEast_NorthAfrican &le; 0.5<br/>entropy = 0.628<br/>samples = 686<br/>value = [108, 578]<br/>class = Suicide>, fillcolor="#399de5cf"] ;
522 -> 523 ;
524 [label=<Political_Building &le; 0.5<br/>entropy = 0.642<br/>samples = 508<br/>value = [83, 425]<br/>class = Suicide>, fillcolor="#399de5cd"] ;
523 -> 524 ;
525 [label=<entropy = 0.648<br/>samples = 471<br/>value = [78, 393]<br/>class = Suicide>, fillcolor="#399de5cc"] ;
524 -> 525 ;
526 [label=<entropy = 0.571<br/>samples = 37<br/>value = [5, 32]<br/>class = Suicide>, fillcolor="#399de5d7"] ;
524 -> 526 ;
527 [label=<Political_Building &le; 0.5<br/>entropy = 0.585<br/>samples = 178<br/>value = [25, 153]<br/>class = Suicide>, fillcolor="#399de5d5"] ;
523 -> 527 ;
528 [label=<entropy = 0.587<br/>samples = 163<br/>value = [23, 140]<br/>class = Suicide>, fillcolor="#399de5d5"] ;
527 -> 528 ;
529 [label=<entropy = 0.567<br/>samples = 15<br/>value = [2, 13]<br/>class = Suicide>, fillcolor="#399de5d8"] ;
527 -> 529 ;
530 [label=<MiddleEast_NorthAfrican &le; 0.5<br/>entropy = 0.454<br/>samples = 63<br/>value = [6, 57]<br/>class = Suicide>, fillcolor="#399de5e4"] ;
522 -> 530 ;
531 [label=<entropy = 0.404<br/>samples = 62<br/>value = [5, 57]<br/>class = Suicide>, fillcolor="#399de5e9"] ;
530 -> 531 ;
532 [label=<entropy = 0.0<br/>samples = 1<br/>value = [1, 0]<br/>class = Not suicide>, fillcolor="#e58139ff"] ;
530 -> 532 ;
533 [label=<Religious_Place_Of_Worship &le; 0.5<br/>entropy = 0.469<br/>samples = 70<br/>value = [7, 63]<br/>class = Suicide>, fillcolor="#399de5e3"] ;
521 -> 533 ;
534 [label=<entropy = 0.426<br/>samples = 69<br/>value = [6, 63]<br/>class = Suicide>, fillcolor="#399de5e7"] ;
533 -> 534 ;
535 [label=<entropy = 0.0<br/>samples = 1<br/>value = [1, 0]<br/>class = Not suicide>, fillcolor="#e58139ff"] ;
533 -> 535 ;
536 [label=<Syria &le; 0.5<br/>entropy = 0.271<br/>samples = 43<br/>value = [2, 41]<br/>class = Suicide>, fillcolor="#399de5f3"] ;
520 -> 536 ;
537 [label=<entropy = 0.162<br/>samples = 42<br/>value = [1, 41]<br/>class = Suicide>, fillcolor="#399de5f9"] ;
536 -> 537 ;
538 [label=<entropy = 0.0<br/>samples = 1<br/>value = [1, 0]<br/>class = Not suicide>, fillcolor="#e58139ff"] ;
536 -> 538 ;
539 [label=<entropy = 0.144<br/>samples = 49<br/>value = [1, 48]<br/>class = Suicide>, fillcolor="#399de5fa"] ;
519 -> 539 ;
540 [label=<MiddleEast_NorthAfrican &le; 0.5<br/>entropy = 0.19<br/>samples = 103<br/>value = [3, 100]<br/>class = Suicide>, fillcolor="#399de5f7"] ;
514 -> 540 ;
541 [label=<entropy = 0.0<br/>samples = 52<br/>value = [0, 52]<br/>class = Suicide>, fillcolor="#399de5ff"] ;
540 -> 541 ;
542 [label=<Hostage_Kidnapping &le; 0.5<br/>entropy = 0.323<br/>samples = 51<br/>value = [3, 48]<br/>class = Suicide>, fillcolor="#399de5ef"] ;
540 -> 542 ;
543 [label=<Syria &le; 0.5<br/>entropy = 0.384<br/>samples = 40<br/>value = [3, 37]<br/>class = Suicide>, fillcolor="#399de5ea"] ;
542 -> 543 ;
544 [label=<entropy = 0.381<br/>samples = 27<br/>value = [2, 25]<br/>class = Suicide>, fillcolor="#399de5eb"] ;
543 -> 544 ;
545 [label=<entropy = 0.391<br/>samples = 13<br/>value = [1, 12]<br/>class = Suicide>, fillcolor="#399de5ea"] ;
543 -> 545 ;
546 [label=<entropy = 0.0<br/>samples = 11<br/>value = [0, 11]<br/>class = Suicide>, fillcolor="#399de5ff"] ;
542 -> 546 ;
547 [label=<entropy = 0.0<br/>samples = 5<br/>value = [5, 0]<br/>class = Not suicide>, fillcolor="#e58139ff"] ;
513 -> 547 ;
548 [label=<entropy = 0.0<br/>samples = 7<br/>value = [7, 0]<br/>class = Not suicide>, fillcolor="#e58139ff"] ;
512 -> 548 ;
549 [label=<entropy = 0.0<br/>samples = 12<br/>value = [12, 0]<br/>class = Not suicide>, fillcolor="#e58139ff"] ;
511 -> 549 ;
550 [label=<Political_Building &le; 0.5<br/>entropy = 0.129<br/>samples = 280<br/>value = [5, 275]<br/>class = Suicide>, fillcolor="#399de5fa"] ;
510 -> 550 ;
551 [label=<Politicial_Checkpoint &le; 0.5<br/>entropy = 0.146<br/>samples = 241<br/>value = [5, 236]<br/>class = Suicide>, fillcolor="#399de5fa"] ;
550 -> 551 ;
552 [label=<NonStateMilitia &le; 0.5<br/>entropy = 0.156<br/>samples = 221<br/>value = [5, 216]<br/>class = Suicide>, fillcolor="#399de5f9"] ;
551 -> 552 ;
553 [label=<entropy = 0.168<br/>samples = 201<br/>value = [5, 196]<br/>class = Suicide>, fillcolor="#399de5f8"] ;
552 -> 553 ;
554 [label=<entropy = 0.0<br/>samples = 20<br/>value = [0, 20]<br/>class = Suicide>, fillcolor="#399de5ff"] ;
552 -> 554 ;
555 [label=<entropy = 0.0<br/>samples = 20<br/>value = [0, 20]<br/>class = Suicide>, fillcolor="#399de5ff"] ;
551 -> 555 ;
556 [label=<entropy = 0.0<br/>samples = 39<br/>value = [0, 39]<br/>class = Suicide>, fillcolor="#399de5ff"] ;
550 -> 556 ;
557 [label=<India &le; 0.5<br/>entropy = 0.214<br/>samples = 3559<br/>value = [121, 3438]<br/>class = Suicide>, fillcolor="#399de5f6"] ;
509 -> 557 ;
558 [label=<Columbia &le; 0.5<br/>entropy = 0.194<br/>samples = 3531<br/>value = [106, 3425]<br/>class = Suicide>, fillcolor="#399de5f7"] ;
557 -> 558 ;
559 [label=<Afghanistan &le; 0.5<br/>entropy = 0.189<br/>samples = 3527<br/>value = [102, 3425]<br/>class = Suicide>, fillcolor="#399de5f7"] ;
558 -> 559 ;
560 [label=<Military_Checkpoint &le; 0.5<br/>entropy = 0.217<br/>samples = 2858<br/>value = [99, 2759]<br/>class = Suicide>, fillcolor="#399de5f6"] ;
559 -> 560 ;
561 [label=<Military_Barracks &le; 0.5<br/>entropy = 0.234<br/>samples = 2569<br/>value = [98, 2471]<br/>class = Suicide>, fillcolor="#399de5f5"] ;
560 -> 561 ;
562 [label=<Happened_After_2002 &le; 0.5<br/>entropy = 0.255<br/>samples = 2194<br/>value = [94, 2100]<br/>class = Suicide>, fillcolor="#399de5f4"] ;
561 -> 562 ;
563 [label=<Government_Politician &le; 0.5<br/>entropy = 0.435<br/>samples = 212<br/>value = [19, 193]<br/>class = Suicide>, fillcolor="#399de5e6"] ;
562 -> 563 ;
564 [label=<MiddleEast_NorthAfrican &le; 0.5<br/>entropy = 0.421<br/>samples = 211<br/>value = [18, 193]<br/>class = Suicide>, fillcolor="#399de5e7"] ;
563 -> 564 ;
565 [label=<Personal_Claim &le; 0.5<br/>entropy = 0.606<br/>samples = 74<br/>value = [11, 63]<br/>class = Suicide>, fillcolor="#399de5d2"] ;
564 -> 565 ;
566 [label=<entropy = 0.576<br/>samples = 73<br/>value = [10, 63]<br/>class = Suicide>, fillcolor="#399de5d7"] ;
565 -> 566 ;
567 [label=<entropy = 0.0<br/>samples = 1<br/>value = [1, 0]<br/>class = Not suicide>, fillcolor="#e58139ff"] ;
565 -> 567 ;
568 [label=<Personal_Claim &le; 0.5<br/>entropy = 0.291<br/>samples = 137<br/>value = [7, 130]<br/>class = Suicide>, fillcolor="#399de5f1"] ;
564 -> 568 ;
569 [label=<Claim_via_Internet &le; 0.5<br/>entropy = 0.325<br/>samples = 118<br/>value = [7, 111]<br/>class = Suicide>, fillcolor="#399de5ef"] ;
568 -> 569 ;
570 [label=<Political_Building &le; 0.5<br/>entropy = 0.363<br/>samples = 101<br/>value = [7, 94]<br/>class = Suicide>, fillcolor="#399de5ec"] ;
569 -> 570 ;
571 [label=<entropy = 0.374<br/>samples = 83<br/>value = [6, 77]<br/>class = Suicide>, fillcolor="#399de5eb"] ;
570 -> 571 ;
572 [label=<entropy = 0.31<br/>samples = 18<br/>value = [1, 17]<br/>class = Suicide>, fillcolor="#399de5f0"] ;
570 -> 572 ;
573 [label=<entropy = 0.0<br/>samples = 17<br/>value = [0, 17]<br/>class = Suicide>, fillcolor="#399de5ff"] ;
569 -> 573 ;
574 [label=<entropy = 0.0<br/>samples = 19<br/>value = [0, 19]<br/>class = Suicide>, fillcolor="#399de5ff"] ;
568 -> 574 ;
575 [label=<entropy = 0.0<br/>samples = 1<br/>value = [1, 0]<br/>class = Not suicide>, fillcolor="#e58139ff"] ;
563 -> 575 ;
576 [label=<Utility_Location &le; 0.5<br/>entropy = 0.232<br/>samples = 1982<br/>value = [75, 1907]<br/>class = Suicide>, fillcolor="#399de5f5"] ;
562 -> 576 ;
577 [label=<NonStateMilitia &le; 0.5<br/>entropy = 0.23<br/>samples = 1981<br/>value = [74, 1907]<br/>class = Suicide>, fillcolor="#399de5f5"] ;
576 -> 577 ;
578 [label=<Politicial_Checkpoint &le; 0.5<br/>entropy = 0.235<br/>samples = 1922<br/>value = [74, 1848]<br/>class = Suicide>, fillcolor="#399de5f5"] ;
577 -> 578 ;
579 [label=<Claim_via_Note &le; 0.5<br/>entropy = 0.24<br/>samples = 1875<br/>value = [74, 1801]<br/>class = Suicide>, fillcolor="#399de5f5"] ;
578 -> 579 ;
580 [label=<Personal_Claim &le; 0.5<br/>entropy = 0.243<br/>samples = 1845<br/>value = [74, 1771]<br/>class = Suicide>, fillcolor="#399de5f4"] ;
579 -> 580 ;
581 [label=<Claim_via_Internet &le; 0.5<br/>entropy = 0.257<br/>samples = 1504<br/>value = [65, 1439]<br/>class = Suicide>, fillcolor="#399de5f3"] ;
580 -> 581 ;
582 [label=<Syria &le; 0.5<br/>entropy = 0.276<br/>samples = 905<br/>value = [43, 862]<br/>class = Suicide>, fillcolor="#399de5f2"] ;
581 -> 582 ;
583 [label=<Religious_Place_Of_Worship &le; 0.5<br/>entropy = 0.262<br/>samples = 902<br/>value = [40, 862]<br/>class = Suicide>, fillcolor="#399de5f3"] ;
582 -> 583 ;
584 [label=<Government_Politician &le; 0.5<br/>entropy = 0.274<br/>samples = 848<br/>value = [40, 808]<br/>class = Suicide>, fillcolor="#399de5f2"] ;
583 -> 584 ;
585 [label=<Political_Building &le; 0.5<br/>entropy = 0.279<br/>samples = 827<br/>value = [40, 787]<br/>class = Suicide>, fillcolor="#399de5f2"] ;
584 -> 585 ;
586 [label=<MiddleEast_NorthAfrican &le; 0.5<br/>entropy = 0.282<br/>samples = 736<br/>value = [36, 700]<br/>class = Suicide>, fillcolor="#399de5f2"] ;
585 -> 586 ;
587 [label=<entropy = 0.286<br/>samples = 560<br/>value = [28, 532]<br/>class = Suicide>, fillcolor="#399de5f2"] ;
586 -> 587 ;
588 [label=<entropy = 0.267<br/>samples = 176<br/>value = [8, 168]<br/>class = Suicide>, fillcolor="#399de5f3"] ;
586 -> 588 ;
589 [label=<MiddleEast_NorthAfrican &le; 0.5<br/>entropy = 0.26<br/>samples = 91<br/>value = [4, 87]<br/>class = Suicide>, fillcolor="#399de5f3"] ;
585 -> 589 ;
590 [label=<entropy = 0.151<br/>samples = 46<br/>value = [1, 45]<br/>class = Suicide>, fillcolor="#399de5f9"] ;
589 -> 590 ;
591 [label=<entropy = 0.353<br/>samples = 45<br/>value = [3, 42]<br/>class = Suicide>, fillcolor="#399de5ed"] ;
589 -> 591 ;
592 [label=<entropy = 0.0<br/>samples = 21<br/>value = [0, 21]<br/>class = Suicide>, fillcolor="#399de5ff"] ;
584 -> 592 ;
593 [label=<entropy = 0.0<br/>samples = 54<br/>value = [0, 54]<br/>class = Suicide>, fillcolor="#399de5ff"] ;
583 -> 593 ;
594 [label=<entropy = 0.0<br/>samples = 3<br/>value = [3, 0]<br/>class = Not suicide>, fillcolor="#e58139ff"] ;
582 -> 594 ;
595 [label=<Government_Politician &le; 0.5<br/>entropy = 0.227<br/>samples = 599<br/>value = [22, 577]<br/>class = Suicide>, fillcolor="#399de5f5"] ;
581 -> 595 ;
596 [label=<Syria &le; 0.5<br/>entropy = 0.219<br/>samples = 598<br/>value = [21, 577]<br/>class = Suicide>, fillcolor="#399de5f6"] ;
595 -> 596 ;
597 [label=<Political_Building &le; 0.5<br/>entropy = 0.246<br/>samples = 489<br/>value = [20, 469]<br/>class = Suicide>, fillcolor="#399de5f4"] ;
596 -> 597 ;
598 [label=<Religious_Place_Of_Worship &le; 0.5<br/>entropy = 0.242<br/>samples = 476<br/>value = [19, 457]<br/>class = Suicide>, fillcolor="#399de5f4"] ;
597 -> 598 ;
599 [label=<MiddleEast_NorthAfrican &le; 0.5<br/>entropy = 0.233<br/>samples = 421<br/>value = [16, 405]<br/>class = Suicide>, fillcolor="#399de5f5"] ;
598 -> 599 ;
600 [label=<Hostage_Kidnapping &le; 0.5<br/>entropy = 0.306<br/>samples = 73<br/>value = [4, 69]<br/>class = Suicide>, fillcolor="#399de5f0"] ;
599 -> 600 ;
601 [label=<entropy = 0.25<br/>samples = 72<br/>value = [3, 69]<br/>class = Suicide>, fillcolor="#399de5f4"] ;
600 -> 601 ;
602 [label=<entropy = 0.0<br/>samples = 1<br/>value = [1, 0]<br/>class = Not suicide>, fillcolor="#e58139ff"] ;
600 -> 602 ;
603 [label=<Hostage_Kidnapping &le; 0.5<br/>entropy = 0.216<br/>samples = 348<br/>value = [12, 336]<br/>class = Suicide>, fillcolor="#399de5f6"] ;
599 -> 603 ;
604 [label=<entropy = 0.223<br/>samples = 335<br/>value = [12, 323]<br/>class = Suicide>, fillcolor="#399de5f6"] ;
603 -> 604 ;
605 [label=<entropy = 0.0<br/>samples = 13<br/>value = [0, 13]<br/>class = Suicide>, fillcolor="#399de5ff"] ;
603 -> 605 ;
606 [label=<MiddleEast_NorthAfrican &le; 0.5<br/>entropy = 0.305<br/>samples = 55<br/>value = [3, 52]<br/>class = Suicide>, fillcolor="#399de5f0"] ;
598 -> 606 ;
607 [label=<entropy = 0.0<br/>samples = 43<br/>value = [0, 43]<br/>class = Suicide>, fillcolor="#399de5ff"] ;
606 -> 607 ;
608 [label=<entropy = 0.811<br/>samples = 12<br/>value = [3, 9]<br/>class = Suicide>, fillcolor="#399de5aa"] ;
606 -> 608 ;
609 [label=<entropy = 0.391<br/>samples = 13<br/>value = [1, 12]<br/>class = Suicide>, fillcolor="#399de5ea"] ;
597 -> 609 ;
610 [label=<entropy = 0.075<br/>samples = 109<br/>value = [1, 108]<br/>class = Suicide>, fillcolor="#399de5fd"] ;
596 -> 610 ;
611 [label=<entropy = 0.0<br/>samples = 1<br/>value = [1, 0]<br/>class = Not suicide>, fillcolor="#e58139ff"] ;
595 -> 611 ;
612 [label=<Syria &le; 0.5<br/>entropy = 0.176<br/>samples = 341<br/>value = [9, 332]<br/>class = Suicide>, fillcolor="#399de5f8"] ;
580 -> 612 ;
613 [label=<Hostage_Kidnapping &le; 0.5<br/>entropy = 0.145<br/>samples = 339<br/>value = [7, 332]<br/>class = Suicide>, fillcolor="#399de5fa"] ;
612 -> 613 ;
614 [label=<Government_Politician &le; 0.5<br/>entropy = 0.15<br/>samples = 324<br/>value = [7, 317]<br/>class = Suicide>, fillcolor="#399de5f9"] ;
613 -> 614 ;
615 [label=<Political_Building &le; 0.5<br/>entropy = 0.155<br/>samples = 311<br/>value = [7, 304]<br/>class = Suicide>, fillcolor="#399de5f9"] ;
614 -> 615 ;
616 [label=<Religious_Place_Of_Worship &le; 0.5<br/>entropy = 0.149<br/>samples = 282<br/>value = [6, 276]<br/>class = Suicide>, fillcolor="#399de5f9"] ;
615 -> 616 ;
617 [label=<entropy = 0.146<br/>samples = 240<br/>value = [5, 235]<br/>class = Suicide>, fillcolor="#399de5fa"] ;
616 -> 617 ;
618 [label=<entropy = 0.162<br/>samples = 42<br/>value = [1, 41]<br/>class = Suicide>, fillcolor="#399de5f9"] ;
616 -> 618 ;
619 [label=<entropy = 0.216<br/>samples = 29<br/>value = [1, 28]<br/>class = Suicide>, fillcolor="#399de5f6"] ;
615 -> 619 ;
620 [label=<entropy = 0.0<br/>samples = 13<br/>value = [0, 13]<br/>class = Suicide>, fillcolor="#399de5ff"] ;
614 -> 620 ;
621 [label=<entropy = 0.0<br/>samples = 15<br/>value = [0, 15]<br/>class = Suicide>, fillcolor="#399de5ff"] ;
613 -> 621 ;
622 [label=<entropy = 0.0<br/>samples = 2<br/>value = [2, 0]<br/>class = Not suicide>, fillcolor="#e58139ff"] ;
612 -> 622 ;
623 [label=<entropy = 0.0<br/>samples = 30<br/>value = [0, 30]<br/>class = Suicide>, fillcolor="#399de5ff"] ;
579 -> 623 ;
624 [label=<entropy = 0.0<br/>samples = 47<br/>value = [0, 47]<br/>class = Suicide>, fillcolor="#399de5ff"] ;
578 -> 624 ;
625 [label=<entropy = 0.0<br/>samples = 59<br/>value = [0, 59]<br/>class = Suicide>, fillcolor="#399de5ff"] ;
577 -> 625 ;
626 [label=<entropy = 0.0<br/>samples = 1<br/>value = [1, 0]<br/>class = Not suicide>, fillcolor="#e58139ff"] ;
576 -> 626 ;
627 [label=<Claim_via_Note &le; 0.5<br/>entropy = 0.085<br/>samples = 375<br/>value = [4, 371]<br/>class = Suicide>, fillcolor="#399de5fc"] ;
561 -> 627 ;
628 [label=<Syria &le; 0.5<br/>entropy = 0.067<br/>samples = 374<br/>value = [3, 371]<br/>class = Suicide>, fillcolor="#399de5fd"] ;
627 -> 628 ;
629 [label=<Claim_via_Internet &le; 0.5<br/>entropy = 0.028<br/>samples = 361<br/>value = [1, 360]<br/>class = Suicide>, fillcolor="#399de5fe"] ;
628 -> 629 ;
630 [label=<MiddleEast_NorthAfrican &le; 0.5<br/>entropy = 0.048<br/>samples = 188<br/>value = [1, 187]<br/>class = Suicide>, fillcolor="#399de5fe"] ;
629 -> 630 ;
631 [label=<entropy = 0.0<br/>samples = 153<br/>value = [0, 153]<br/>class = Suicide>, fillcolor="#399de5ff"] ;
630 -> 631 ;
632 [label=<Happened_After_2002 &le; 0.5<br/>entropy = 0.187<br/>samples = 35<br/>value = [1, 34]<br/>class = Suicide>, fillcolor="#399de5f8"] ;
630 -> 632 ;
633 [label=<entropy = 0.0<br/>samples = 17<br/>value = [0, 17]<br/>class = Suicide>, fillcolor="#399de5ff"] ;
632 -> 633 ;
634 [label=<entropy = 0.31<br/>samples = 18<br/>value = [1, 17]<br/>class = Suicide>, fillcolor="#399de5f0"] ;
632 -> 634 ;
635 [label=<entropy = 0.0<br/>samples = 173<br/>value = [0, 173]<br/>class = Suicide>, fillcolor="#399de5ff"] ;
629 -> 635 ;
636 [label=<Personal_Claim &le; 0.5<br/>entropy = 0.619<br/>samples = 13<br/>value = [2, 11]<br/>class = Suicide>, fillcolor="#399de5d1"] ;
628 -> 636 ;
637 [label=<entropy = 0.0<br/>samples = 11<br/>value = [0, 11]<br/>class = Suicide>, fillcolor="#399de5ff"] ;
636 -> 637 ;
638 [label=<entropy = 0.0<br/>samples = 2<br/>value = [2, 0]<br/>class = Not suicide>, fillcolor="#e58139ff"] ;
636 -> 638 ;
639 [label=<entropy = 0.0<br/>samples = 1<br/>value = [1, 0]<br/>class = Not suicide>, fillcolor="#e58139ff"] ;
627 -> 639 ;
640 [label=<Personal_Claim &le; 0.5<br/>entropy = 0.033<br/>samples = 289<br/>value = [1, 288]<br/>class = Suicide>, fillcolor="#399de5fe"] ;
560 -> 640 ;
641 [label=<entropy = 0.0<br/>samples = 247<br/>value = [0, 247]<br/>class = Suicide>, fillcolor="#399de5ff"] ;
640 -> 641 ;
642 [label=<MiddleEast_NorthAfrican &le; 0.5<br/>entropy = 0.162<br/>samples = 42<br/>value = [1, 41]<br/>class = Suicide>, fillcolor="#399de5f9"] ;
640 -> 642 ;
643 [label=<entropy = 0.0<br/>samples = 27<br/>value = [0, 27]<br/>class = Suicide>, fillcolor="#399de5ff"] ;
642 -> 643 ;
644 [label=<entropy = 0.353<br/>samples = 15<br/>value = [1, 14]<br/>class = Suicide>, fillcolor="#399de5ed"] ;
642 -> 644 ;
645 [label=<Politicial_Checkpoint &le; 0.5<br/>entropy = 0.041<br/>samples = 669<br/>value = [3, 666]<br/>class = Suicide>, fillcolor="#399de5fe"] ;
559 -> 645 ;
646 [label=<Claim_via_Internet &le; 0.5<br/>entropy = 0.029<br/>samples = 668<br/>value = [2, 666]<br/>class = Suicide>, fillcolor="#399de5fe"] ;
645 -> 646 ;
647 [label=<Hostage_Kidnapping &le; 0.5<br/>entropy = 0.034<br/>samples = 554<br/>value = [2, 552]<br/>class = Suicide>, fillcolor="#399de5fe"] ;
646 -> 647 ;
648 [label=<Personal_Claim &le; 0.5<br/>entropy = 0.037<br/>samples = 515<br/>value = [2, 513]<br/>class = Suicide>, fillcolor="#399de5fe"] ;
647 -> 648 ;
649 [label=<Political_Building &le; 0.5<br/>entropy = 0.029<br/>samples = 344<br/>value = [1, 343]<br/>class = Suicide>, fillcolor="#399de5fe"] ;
648 -> 649 ;
650 [label=<entropy = 0.029<br/>samples = 334<br/>value = [1, 333]<br/>class = Suicide>, fillcolor="#399de5fe"] ;
649 -> 650 ;
651 [label=<entropy = 0.0<br/>samples = 10<br/>value = [0, 10]<br/>class = Suicide>, fillcolor="#399de5ff"] ;
649 -> 651 ;
652 [label=<Political_Building &le; 0.5<br/>entropy = 0.052<br/>samples = 171<br/>value = [1, 170]<br/>class = Suicide>, fillcolor="#399de5fd"] ;
648 -> 652 ;
653 [label=<entropy = 0.054<br/>samples = 162<br/>value = [1, 161]<br/>class = Suicide>, fillcolor="#399de5fd"] ;
652 -> 653 ;
654 [label=<entropy = 0.0<br/>samples = 9<br/>value = [0, 9]<br/>class = Suicide>, fillcolor="#399de5ff"] ;
652 -> 654 ;
655 [label=<entropy = 0.0<br/>samples = 39<br/>value = [0, 39]<br/>class = Suicide>, fillcolor="#399de5ff"] ;
647 -> 655 ;
656 [label=<entropy = 0.0<br/>samples = 114<br/>value = [0, 114]<br/>class = Suicide>, fillcolor="#399de5ff"] ;
646 -> 656 ;
657 [label=<entropy = 0.0<br/>samples = 1<br/>value = [1, 0]<br/>class = Not suicide>, fillcolor="#e58139ff"] ;
645 -> 657 ;
658 [label=<entropy = 0.0<br/>samples = 4<br/>value = [4, 0]<br/>class = Not suicide>, fillcolor="#e58139ff"] ;
558 -> 658 ;
659 [label=<Personal_Claim &le; 0.5<br/>entropy = 0.996<br/>samples = 28<br/>value = [15, 13]<br/>class = Not suicide>, fillcolor="#e5813922"] ;
557 -> 659 ;
660 [label=<entropy = 1.0<br/>samples = 26<br/>value = [13, 13]<br/>class = Not suicide>, fillcolor="#e5813900"] ;
659 -> 660 ;
661 [label=<entropy = 0.0<br/>samples = 2<br/>value = [2, 0]<br/>class = Not suicide>, fillcolor="#e58139ff"] ;
659 -> 661 ;
662 [label=<Politicial_Checkpoint &le; 0.5<br/>entropy = 0.661<br/>samples = 2474<br/>value = [424, 2050]<br/>class = Suicide>, fillcolor="#399de5ca"] ;
508 -> 662 ;
663 [label=<Claim_via_Internet &le; 0.5<br/>entropy = 0.686<br/>samples = 2296<br/>value = [420, 1876]<br/>class = Suicide>, fillcolor="#399de5c6"] ;
662 -> 663 ;
664 [label=<Political_Building &le; 0.5<br/>entropy = 0.597<br/>samples = 1554<br/>value = [225, 1329]<br/>class = Suicide>, fillcolor="#399de5d4"] ;
663 -> 664 ;
665 [label=<Military_Checkpoint &le; 0.5<br/>entropy = 0.627<br/>samples = 1389<br/>value = [218, 1171]<br/>class = Suicide>, fillcolor="#399de5d0"] ;
664 -> 665 ;
666 [label=<Personal_Claim &le; 0.5<br/>entropy = 0.641<br/>samples = 1339<br/>value = [218, 1121]<br/>class = Suicide>, fillcolor="#399de5cd"] ;
665 -> 666 ;
667 [label=<Military_Barracks &le; 0.5<br/>entropy = 0.667<br/>samples = 1230<br/>value = [214, 1016]<br/>class = Suicide>, fillcolor="#399de5c9"] ;
666 -> 667 ;
668 [label=<NonStateMilitia &le; 0.5<br/>entropy = 0.678<br/>samples = 1190<br/>value = [213, 977]<br/>class = Suicide>, fillcolor="#399de5c7"] ;
667 -> 668 ;
669 [label=<Happened_After_2002 &le; 0.5<br/>entropy = 0.69<br/>samples = 1142<br/>value = [211, 931]<br/>class = Suicide>, fillcolor="#399de5c5"] ;
668 -> 669 ;
670 [label=<entropy = 0.0<br/>samples = 2<br/>value = [2, 0]<br/>class = Not suicide>, fillcolor="#e58139ff"] ;
669 -> 670 ;
671 [label=<Hostage_Kidnapping &le; 0.5<br/>entropy = 0.687<br/>samples = 1140<br/>value = [209, 931]<br/>class = Suicide>, fillcolor="#399de5c6"] ;
669 -> 671 ;
672 [label=<Government_Politician &le; 0.5<br/>entropy = 0.693<br/>samples = 1118<br/>value = [208, 910]<br/>class = Suicide>, fillcolor="#399de5c5"] ;
671 -> 672 ;
673 [label=<Claimed_responsibility &le; 0.5<br/>entropy = 0.702<br/>samples = 1071<br/>value = [204, 867]<br/>class = Suicide>, fillcolor="#399de5c3"] ;
672 -> 673 ;
674 [label=<Religious_Place_Of_Worship &le; 0.5<br/>entropy = 0.714<br/>samples = 963<br/>value = [189, 774]<br/>class = Suicide>, fillcolor="#399de5c1"] ;
673 -> 674 ;
675 [label=<entropy = 0.714<br/>samples = 868<br/>value = [170, 698]<br/>class = Suicide>, fillcolor="#399de5c1"] ;
674 -> 675 ;
676 [label=<entropy = 0.722<br/>samples = 95<br/>value = [19, 76]<br/>class = Suicide>, fillcolor="#399de5bf"] ;
674 -> 676 ;
677 [label=<Religious_Place_Of_Worship &le; 0.5<br/>entropy = 0.581<br/>samples = 108<br/>value = [15, 93]<br/>class = Suicide>, fillcolor="#399de5d6"] ;
673 -> 677 ;
678 [label=<entropy = 0.659<br/>samples = 88<br/>value = [15, 73]<br/>class = Suicide>, fillcolor="#399de5cb"] ;
677 -> 678 ;
679 [label=<entropy = 0.0<br/>samples = 20<br/>value = [0, 20]<br/>class = Suicide>, fillcolor="#399de5ff"] ;
677 -> 679 ;
680 [label=<entropy = 0.42<br/>samples = 47<br/>value = [4, 43]<br/>class = Suicide>, fillcolor="#399de5e7"] ;
672 -> 680 ;
681 [label=<Claimed_responsibility &le; 0.5<br/>entropy = 0.267<br/>samples = 22<br/>value = [1, 21]<br/>class = Suicide>, fillcolor="#399de5f3"] ;
671 -> 681 ;
682 [label=<entropy = 0.414<br/>samples = 12<br/>value = [1, 11]<br/>class = Suicide>, fillcolor="#399de5e8"] ;
681 -> 682 ;
683 [label=<entropy = 0.0<br/>samples = 10<br/>value = [0, 10]<br/>class = Suicide>, fillcolor="#399de5ff"] ;
681 -> 683 ;
684 [label=<entropy = 0.25<br/>samples = 48<br/>value = [2, 46]<br/>class = Suicide>, fillcolor="#399de5f4"] ;
668 -> 684 ;
685 [label=<entropy = 0.169<br/>samples = 40<br/>value = [1, 39]<br/>class = Suicide>, fillcolor="#399de5f8"] ;
667 -> 685 ;
686 [label=<Government_Politician &le; 0.5<br/>entropy = 0.227<br/>samples = 109<br/>value = [4, 105]<br/>class = Suicide>, fillcolor="#399de5f5"] ;
666 -> 686 ;
687 [label=<Religious_Place_Of_Worship &le; 0.5<br/>entropy = 0.246<br/>samples = 98<br/>value = [4, 94]<br/>class = Suicide>, fillcolor="#399de5f4"] ;
686 -> 687 ;
688 [label=<entropy = 0.262<br/>samples = 90<br/>value = [4, 86]<br/>class = Suicide>, fillcolor="#399de5f3"] ;
687 -> 688 ;
689 [label=<entropy = 0.0<br/>samples = 8<br/>value = [0, 8]<br/>class = Suicide>, fillcolor="#399de5ff"] ;
687 -> 689 ;
690 [label=<entropy = 0.0<br/>samples = 11<br/>value = [0, 11]<br/>class = Suicide>, fillcolor="#399de5ff"] ;
686 -> 690 ;
691 [label=<entropy = 0.0<br/>samples = 50<br/>value = [0, 50]<br/>class = Suicide>, fillcolor="#399de5ff"] ;
665 -> 691 ;
692 [label=<Claimed_responsibility &le; 0.5<br/>entropy = 0.253<br/>samples = 165<br/>value = [7, 158]<br/>class = Suicide>, fillcolor="#399de5f4"] ;
664 -> 692 ;
693 [label=<entropy = 0.294<br/>samples = 135<br/>value = [7, 128]<br/>class = Suicide>, fillcolor="#399de5f1"] ;
692 -> 693 ;
694 [label=<entropy = 0.0<br/>samples = 30<br/>value = [0, 30]<br/>class = Suicide>, fillcolor="#399de5ff"] ;
692 -> 694 ;
695 [label=<Military_Barracks &le; 0.5<br/>entropy = 0.831<br/>samples = 742<br/>value = [195, 547]<br/>class = Suicide>, fillcolor="#399de5a4"] ;
663 -> 695 ;
696 [label=<Religious_Place_Of_Worship &le; 0.5<br/>entropy = 0.845<br/>samples = 716<br/>value = [195, 521]<br/>class = Suicide>, fillcolor="#399de5a0"] ;
695 -> 696 ;
697 [label=<Claimed_responsibility &le; 0.5<br/>entropy = 0.837<br/>samples = 711<br/>value = [190, 521]<br/>class = Suicide>, fillcolor="#399de5a2"] ;
696 -> 697 ;
698 [label=<entropy = 0.0<br/>samples = 18<br/>value = [0, 18]<br/>class = Suicide>, fillcolor="#399de5ff"] ;
697 -> 698 ;
699 [label=<Hostage_Kidnapping &le; 0.5<br/>entropy = 0.847<br/>samples = 693<br/>value = [190, 503]<br/>class = Suicide>, fillcolor="#399de59f"] ;
697 -> 699 ;
700 [label=<Military_Checkpoint &le; 0.5<br/>entropy = 0.856<br/>samples = 677<br/>value = [190, 487]<br/>class = Suicide>, fillcolor="#399de59c"] ;
699 -> 700 ;
701 [label=<Political_Building &le; 0.5<br/>entropy = 0.869<br/>samples = 652<br/>value = [189, 463]<br/>class = Suicide>, fillcolor="#399de597"] ;
700 -> 701 ;
